/*!
 * The following copyright notice may not be removed under any circumstances.
 * 
 * Copyright:
 * © 2008 Microsoft Corporation. All Rights Reserved.
 * 
 * Trademark:
 * Consolas is either a registered trademark or a trademark of Microsoft
 * Corporation in the United States and/or other countries.
 * 
 * Description:
 * Consolas is aimed for use in programming environments and other circumstances
 * where a monospaced font is specified. All characters have the same width, like
 * old typewriters, making it a good choice for personal and business
 * correspondance. The improved Windows font display allowed a design with
 * proportions closer to normal text than traditional monospaced fonts like
 * Courier. This allows for more comfortably reading of extended text on screen.
 * OpenType features include hanging or lining numerals; slashed, dotted and normal
 * zeros; and alternative shapes for a number of lowercase letters. The look of
 * text can be tuned to personal taste by varying the number of bars and waves.
 * 
 * Manufacturer:
 * Microsoft Corporation
 * 
 * Designer:
 * Luc(as) de Groot
 * 
 * Vendor URL:
 * http://www.microsoft.com/typography/ctfonts
 * 
 * License information:
 * http://www.microsoft.com/typography/fonts/default.aspx
 */
Cufon.registerFont({"w":1126,"face":{"font-family":"Consolas","font-weight":700,"font-style":"italic","font-stretch":"normal","units-per-em":"2048","panose-1":"2 11 7 9 2 2 4 10 2 4","ascent":"1521","descent":"-527","x-height":"23","bbox":"-184 -1950.06 1359 421.191","underline-thickness":"194","underline-position":"-120","slope":"-11","unicode-range":"U+0020-U+0513"},"glyphs":{" ":{},"\u00a0":{},"A":{"d":"760,0r-21,-258r-456,0r-125,258r-256,0r649,-1307r344,0r125,1307r-260,0xm676,-1067r-295,608r342,0"},"B":{"d":"840,-684v139,24,218,146,182,316v-54,257,-269,368,-590,368r-405,0r262,-1307v340,13,809,-77,809,258v0,193,-111,311,-258,365xm561,-766v159,-3,268,-77,273,-225v5,-149,-192,-117,-342,-121r-68,346r137,0xm764,-438v0,-165,-208,-138,-379,-140r-76,377r160,0v175,-2,295,-75,295,-237"},"C":{"d":"629,-203v117,-2,217,-36,305,-71r0,221v-112,41,-216,70,-354,71v-352,3,-524,-208,-485,-564v40,-367,198,-650,517,-750v161,-51,400,-29,545,18r-47,227v-120,-47,-325,-89,-454,-21v-194,102,-287,319,-298,595v-7,180,83,278,271,274"},"D":{"d":"621,-1307v355,-6,536,181,497,547v-49,460,-283,755,-792,760r-342,0r262,-1307r375,0xm858,-839v4,-182,-94,-263,-278,-262r-131,0r-179,895v108,1,210,-1,285,-34v208,-93,297,-313,303,-599"},"E":{"d":"82,0r262,-1307r786,0r-43,208r-536,0r-66,325r512,0r-39,203r-512,0r-73,363r536,0r-41,208r-786,0"},"F":{"d":"551,-1098r-72,361r494,0r-41,202r-494,0r-106,535r-250,0r262,-1307r772,0r-43,209r-522,0"},"G":{"d":"313,-465v-14,236,203,311,418,246r68,-334r-221,0r40,-203r465,0r-141,697v-123,51,-237,82,-403,82v-312,0,-484,-169,-484,-482v0,-415,186,-707,507,-827v179,-67,452,-45,620,16r-47,227v-125,-49,-340,-100,-487,-35v-216,96,-317,316,-335,613"},"H":{"d":"684,0r113,-569r-445,0r-112,569r-246,0r262,-1307r246,0r-107,525r445,0r106,-525r246,0r-262,1307r-246,0"},"I":{"d":"268,-1105r41,-202r828,0r-41,202r-289,0r-181,903r287,0r-39,202r-827,0r39,-202r290,0r182,-903r-290,0"},"J":{"d":"178,-283v57,64,167,125,286,85v98,-33,152,-119,175,-236r135,-670r-473,0r41,-203r721,0r-186,936v-57,260,-270,431,-600,382v-99,-15,-179,-60,-236,-120"},"K":{"d":"670,0r-267,-633r-127,633r-251,0r262,-1307r252,0r-117,584r502,-584r313,0r-582,633r324,674r-309,0"},"L":{"d":"95,0r261,-1307r250,0r-219,1096r551,0r-41,211r-802,0"},"M":{"d":"762,0r174,-1034r-338,645r-154,0r-43,-445r-14,-200r-63,289r-172,745r-209,0r325,-1307r267,0r38,371r15,209r94,-197r199,-383r295,0r-197,1307r-217,0"},"N":{"d":"643,0r-194,-780r-39,-168r-189,948r-223,0r262,-1307r289,0r199,785r32,153r189,-938r225,0r-262,1307r-289,0"},"O":{"d":"715,-1329v277,0,428,159,424,440v-4,333,-107,599,-287,764v-93,85,-217,148,-387,148v-277,0,-428,-160,-424,-441v4,-332,107,-599,287,-764v93,-85,217,-147,387,-147xm299,-438v0,158,50,240,201,240v153,0,229,-107,285,-216v62,-120,96,-277,96,-454v0,-157,-51,-240,-201,-240v-153,0,-229,107,-285,216v-62,121,-96,277,-96,454"},"P":{"d":"666,-1307v264,2,458,88,458,332v0,265,-145,428,-348,509v-111,44,-257,48,-414,46r-83,420r-246,0r262,-1307r371,0xm863,-937v4,-175,-183,-170,-364,-166r-97,479v99,-1,196,7,268,-24v111,-47,189,-140,193,-289"},"Q":{"d":"995,270v-82,62,-190,108,-319,109v-242,2,-363,-123,-346,-373v-191,-42,-292,-190,-289,-424v4,-332,107,-599,287,-764v93,-85,217,-147,387,-147v277,0,429,159,424,440v-7,391,-139,689,-393,840v-54,32,-116,52,-183,63v-6,110,44,159,154,156v70,-1,130,-32,174,-68xm299,-438v0,158,50,239,201,239v153,0,229,-106,285,-215v62,-120,96,-277,96,-454v0,-157,-51,-240,-201,-240v-153,0,-229,107,-285,216v-62,121,-96,277,-96,454"},"R":{"d":"1075,-1022v0,242,-145,372,-354,414v93,55,125,164,158,284r90,324r-277,0r-80,-326v-31,-129,-66,-229,-232,-215r-107,541r-246,0r262,-1307v348,8,786,-68,786,285xm815,-969v3,-147,-168,-134,-322,-133r-74,369v218,9,391,-34,396,-236"},"S":{"d":"1036,-1071v-171,-53,-567,-111,-567,113v0,98,94,129,169,165r97,47v129,66,266,136,266,326v0,238,-160,356,-358,412v-195,55,-471,33,-641,-25r47,-231v107,38,231,69,373,69v159,0,299,-37,299,-180v0,-104,-90,-139,-167,-175r-98,-46v-129,-64,-263,-130,-263,-319v0,-211,138,-321,313,-379v159,-52,418,-38,573,6"},"T":{"d":"807,-1102r-219,1102r-252,0r219,-1102r-358,0r43,-205r968,0r-43,205r-358,0"},"U":{"d":"310,-346v-1,119,64,166,184,166v192,0,256,-119,289,-284r170,-843r247,0r-171,846v-59,295,-218,484,-566,484v-249,0,-403,-97,-403,-342v0,-44,7,-91,17,-142r169,-846r246,0r-170,852v-8,41,-12,78,-12,109"},"V":{"d":"623,0r-326,0r-137,-1307r264,0r88,1045r498,-1045r276,0"},"W":{"d":"918,0r-277,0r-43,-403r-14,-164r-84,168r-213,399r-283,0r189,-1307r217,0r-177,1067r101,-204r237,-465r156,0r51,493r15,174r45,-204r206,-861r209,0"},"X":{"d":"715,0r-156,-481r-344,481r-309,0r510,-670r-223,-637r276,0r145,455r322,-455r301,0r-479,637r258,670r-301,0"},"Y":{"d":"674,-463r-91,463r-250,0r93,-461r-256,-846r258,0r113,404r49,198r131,-204r276,-398r277,0"},"Z":{"d":"2,0r37,-188r766,-896r-567,0r45,-223r891,0r-41,197r-767,887r598,0r-44,223r-918,0"},"a":{"d":"727,-184v-76,107,-186,207,-365,207v-206,0,-302,-139,-301,-353v3,-322,129,-545,351,-652v135,-65,358,-64,501,-17r174,-37r-124,632r-27,219r-18,185r-199,0xm342,-549v-32,123,-70,367,84,367v84,0,148,-74,197,-132v56,-69,112,-169,131,-268r47,-239v-74,-28,-190,-31,-261,3v-104,50,-167,150,-198,269"},"b":{"d":"758,-1038v205,-3,302,139,301,352v-3,322,-129,546,-351,652v-184,88,-485,50,-663,-9r274,-1370r244,0r-69,348r-72,211v68,-103,173,-182,336,-184xm319,-195v74,28,192,33,263,-3v154,-77,223,-252,223,-472v0,-94,-26,-164,-111,-164v-93,0,-147,72,-196,132v-59,72,-110,162,-131,268"},"c":{"d":"612,-195v103,0,196,-28,275,-59r0,209v-91,34,-198,62,-318,63v-281,2,-450,-122,-450,-391v0,-337,172,-547,439,-633v146,-47,367,-24,493,17r-45,229v-95,-48,-263,-89,-384,-42v-152,59,-233,201,-239,401v-4,139,88,206,229,206"},"d":{"d":"362,23v-206,0,-302,-139,-301,-353v3,-322,129,-546,351,-652v115,-55,288,-63,428,-36r80,-395r243,0r-200,1009r-27,219r-18,185r-199,0r8,-184v-76,107,-186,207,-365,207xm801,-821v-68,-26,-192,-32,-261,3v-153,78,-225,252,-225,472v0,94,26,164,111,164v84,0,148,-74,197,-132v56,-69,112,-169,131,-268"},"e":{"d":"680,-1038v206,0,364,77,364,274v0,199,-134,275,-310,316v-103,24,-262,25,-402,24v-26,162,61,256,223,252v111,-3,233,-18,326,-45r0,190v-107,28,-241,51,-373,50v-261,-2,-420,-119,-420,-379v0,-304,140,-522,349,-628v73,-36,154,-54,243,-54xm793,-687v43,-96,-35,-174,-138,-169v-168,8,-241,124,-284,258v141,1,293,2,375,-44v24,-13,39,-28,47,-45"},"f":{"d":"1190,-1212v-119,-29,-312,-49,-390,32v-65,67,-85,196,-108,310r400,0r-39,190r-400,0r-137,692v-47,301,-270,444,-635,402r41,-193v96,13,200,6,256,-41v44,-36,76,-88,90,-157r140,-703r-295,0r39,-190r294,0r29,-146v55,-270,203,-413,512,-416v82,0,176,13,242,29"},"g":{"d":"412,-982v135,-65,358,-64,501,-17r174,-37r-208,1044v-50,259,-194,414,-504,412v-125,-1,-259,-28,-346,-76r95,-178v108,64,323,96,427,10v84,-69,97,-230,147,-338v-68,103,-172,185,-336,185v-206,0,-302,-139,-301,-353v3,-322,129,-545,351,-652xm342,-549v-32,123,-70,367,84,367v84,0,148,-74,197,-132v56,-69,112,-169,131,-268r47,-239v-74,-28,-190,-31,-261,3v-104,50,-167,150,-198,269"},"h":{"d":"422,-854v69,-104,176,-180,342,-184v218,-4,301,159,256,381r-133,657r-244,0r133,-662v19,-96,2,-172,-76,-172v-95,0,-152,71,-202,132v-59,72,-109,162,-131,268r-86,434r-244,0r282,-1413r244,0r-69,348"},"i":{"d":"164,-959v79,-43,176,-80,291,-80v231,0,316,118,266,371r-66,328v-20,110,-13,172,76,172v89,0,156,-41,234,-76r0,187v-79,42,-178,80,-291,80v-233,0,-318,-116,-266,-371r65,-328v21,-110,11,-172,-76,-172v-88,0,-157,41,-233,76r0,-187xm700,-1454v95,0,156,59,156,151v0,102,-69,168,-170,168v-94,0,-158,-58,-158,-151v0,-102,71,-168,172,-168"},"j":{"d":"47,127v50,54,116,98,219,98v165,0,241,-103,271,-252r135,-675v18,-96,-4,-146,-94,-146v-133,0,-234,47,-338,82r0,-191v120,-47,240,-82,397,-82v241,0,327,113,276,371r-127,641v-56,280,-219,447,-546,447v-145,0,-259,-42,-342,-125xm887,-1454v94,0,155,59,155,151v0,102,-68,168,-170,168v-94,0,-157,-59,-157,-151v0,-102,71,-168,172,-168"},"k":{"d":"1067,-774v0,227,-153,322,-340,371r262,403r-295,0r-288,-512v133,-17,239,-40,324,-87v55,-31,88,-68,91,-140v6,-122,-139,-129,-220,-72v-103,73,-198,194,-226,336r-94,475r-244,0r282,-1413r244,0r-69,348r-72,211v68,-104,172,-184,338,-184v181,0,307,83,307,264"},"l":{"d":"918,-63v-123,50,-248,86,-408,86v-242,0,-335,-115,-283,-373r213,-1063r246,0r-219,1102v-18,95,13,143,102,143v134,0,228,-42,349,-86r0,191"},"m":{"d":"690,-852v66,-84,114,-184,250,-184v164,0,205,129,166,327r-141,709r-211,0r139,-692v9,-51,14,-89,13,-114v-3,-59,-48,-41,-80,-8v-70,70,-135,182,-158,298r-103,516r-209,0r140,-692v9,-51,16,-89,14,-114v-4,-57,-47,-41,-79,-8v-69,71,-138,182,-161,298r-102,516r-211,0r121,-611r45,-405r180,0r-6,164v68,-91,124,-177,252,-184v112,-5,166,74,141,184"},"n":{"d":"399,-831v76,-106,187,-203,365,-207v218,-5,301,159,256,381r-133,657r-244,0r133,-662v19,-96,2,-172,-76,-172v-92,0,-147,72,-196,132v-59,72,-110,163,-131,268r-86,434r-244,0r121,-611r45,-405r199,0"},"o":{"d":"659,-1038v260,0,412,124,412,385v0,271,-114,460,-278,577v-83,59,-191,99,-326,99v-260,0,-412,-124,-412,-385v0,-271,114,-462,279,-578v83,-59,189,-98,325,-98xm320,-480v-34,160,20,299,180,292v163,-7,234,-124,281,-248v21,-56,33,-124,34,-193v1,-128,-64,-198,-188,-198v-199,0,-270,173,-307,347"},"p":{"d":"764,-1038v207,-3,302,139,301,352v-3,322,-129,545,-351,652v-114,55,-288,64,-427,36r-80,395r-244,0r189,-940r24,-159r33,-314r199,0r-9,185v76,-106,187,-205,365,-207xm326,-195v68,26,193,32,262,-3v153,-78,223,-252,223,-472v0,-94,-26,-164,-111,-164v-92,0,-147,72,-196,132v-59,72,-110,163,-131,268"},"q":{"d":"412,-982v135,-65,358,-64,501,-17r174,-37r-286,1433r-244,0r70,-348r71,-211v-68,103,-172,185,-336,185v-206,0,-302,-139,-301,-353v3,-322,129,-545,351,-652xm342,-549v-32,123,-70,367,84,367v84,0,148,-74,197,-132v56,-69,112,-169,131,-268r47,-239v-74,-28,-190,-31,-261,3v-104,50,-167,150,-198,269"},"r":{"d":"432,-817v70,-117,177,-221,361,-221v172,0,271,81,285,240v4,52,-2,110,-17,177r-246,0v25,-101,31,-219,-84,-213v-88,5,-148,78,-195,144v-60,83,-111,201,-135,319r-73,371r-250,0r120,-611r27,-220r19,-185r198,0"},"s":{"d":"792,-61v-157,110,-505,96,-714,45r0,-220v115,40,234,70,368,72v127,1,224,-32,224,-131v0,-61,-45,-76,-94,-98v-24,-11,-56,-21,-95,-33v-159,-51,-280,-121,-280,-301v0,-169,131,-246,278,-287v142,-40,368,-25,504,4r0,199v-106,-32,-192,-47,-305,-47v-114,0,-217,24,-217,119v0,67,48,86,103,107v162,62,370,106,370,310v0,128,-63,205,-142,261"},"t":{"d":"546,-290v-1,169,238,107,351,82r0,194v-174,47,-452,66,-551,-55v-61,-74,-68,-179,-41,-312r90,-445r-272,0r37,-190r272,0r53,-260r263,-65r-66,325r395,0r-37,190r-395,0r-90,447v-7,34,-9,63,-9,89"},"u":{"d":"727,-184v-76,107,-186,203,-365,207v-217,5,-301,-160,-256,-381r134,-658r243,0r-133,662v-18,96,-2,172,76,172v84,0,148,-74,197,-132v56,-69,112,-169,131,-268r86,-434r243,0r-120,612r-27,219r-18,185r-199,0"},"v":{"d":"518,-244v184,-179,298,-438,326,-772r260,0v-57,448,-262,782,-539,1016r-241,0r-201,-1016r254,0"},"w":{"d":"766,-283v115,-184,164,-451,178,-733r227,0v-33,417,-151,787,-376,1016r-193,0r-45,-322r-10,-112r-55,115r-168,319r-275,0r60,-1016r227,0r-41,574r-14,157r69,-141r164,-309r186,0r48,307"},"x":{"d":"700,0r-163,-342r-301,342r-306,0r484,-512r-260,-504r286,0r162,334r291,-334r285,0r-451,502r266,514r-293,0"},"y":{"d":"-115,205v98,17,211,14,273,-35v61,-48,110,-101,166,-170r-201,-1016r254,0r143,785r106,-164v111,-180,199,-356,218,-621r260,0v-42,369,-201,606,-373,856v-129,187,-253,344,-416,474v-103,82,-255,124,-430,98r0,-207"},"z":{"d":"47,0r35,-172r614,-635r-475,0r41,-209r807,0r-35,174r-600,627r484,0r-44,215r-827,0"},"&":{"d":"776,-444v34,-70,61,-148,76,-238r225,0v-34,169,-98,313,-182,430r158,252r-275,0r-53,-84v-91,64,-201,107,-344,107v-235,0,-391,-97,-391,-322v0,-246,169,-348,327,-446v-70,-103,-112,-275,-49,-413v66,-144,196,-247,398,-247v195,0,327,89,327,272v0,187,-120,273,-239,350v-44,29,-91,53,-138,78xm414,-590v-87,62,-176,127,-176,268v0,96,60,148,165,148v81,0,155,-25,222,-76xm645,-1217v-133,9,-204,123,-167,264v7,27,21,60,44,97v84,-48,173,-93,218,-176v44,-80,11,-192,-95,-185"},"`":{"d":"559,-1413r252,262r-244,0r-338,-262r330,0"},",":{"d":"500,-373v209,-7,206,277,128,422v-99,185,-297,299,-573,303r0,-159v140,3,252,-39,311,-117v16,-22,23,-45,23,-68v0,-81,-73,-106,-70,-196v4,-112,68,-181,181,-185"},";":{"d":"451,-838v0,-113,75,-188,188,-188v104,0,172,69,172,172v0,114,-74,188,-186,188v-105,0,-174,-68,-174,-172xm512,-373v209,-7,206,277,128,422v-99,185,-296,299,-572,303r0,-159v139,3,251,-39,310,-117v16,-22,23,-45,23,-68v0,-81,-72,-106,-69,-196v4,-112,67,-181,180,-185"},":":{"d":"311,-150v0,-113,76,-188,189,-188v104,0,171,70,171,172v0,114,-73,189,-186,189v-105,0,-174,-69,-174,-173xm451,-838v0,-113,75,-188,188,-188v104,0,172,69,172,172v0,114,-74,188,-186,188v-105,0,-174,-68,-174,-172"},".":{"d":"560,8v-161,64,-316,-84,-246,-252v29,-70,89,-125,184,-125v139,0,225,133,172,268v-20,50,-61,88,-110,109"},"-":{"d":"236,-436r45,-217r622,0r-45,217r-622,0"},"\u2010":{"d":"236,-436r45,-217r622,0r-45,217r-622,0"},"\u00ad":{"d":"236,-436r45,-217r622,0r-45,217r-622,0"},"!":{"d":"645,-406r-209,0r166,-1007r283,0xm500,-297v94,0,153,60,153,152v0,103,-74,168,-176,168v-93,0,-151,-60,-151,-152v0,-103,72,-168,174,-168"},"?":{"d":"791,-997v0,-170,-182,-194,-377,-189r47,-227v285,-8,500,61,572,253v88,236,-45,447,-221,522v-56,24,-120,41,-194,44r-49,188r-209,0r58,-376r135,0v151,0,238,-74,238,-215xm424,-297v94,0,154,60,154,152v0,103,-74,168,-177,168v-93,0,-151,-60,-151,-152v0,-103,72,-168,174,-168"},"\/":{"d":"168,215r-250,0r1026,-1628r250,0"},"|":{"d":"264,410r412,-2048r225,0r-412,2048r-225,0"},"(":{"d":"522,-561v-82,355,54,656,223,844r-165,137v-232,-230,-404,-591,-290,-1024v103,-392,350,-668,660,-887r121,150v-201,150,-352,323,-459,531v-44,86,-72,169,-90,249"},")":{"d":"618,-510v82,-356,-57,-656,-225,-844r166,-137v232,230,405,591,291,1024v-103,392,-352,668,-662,887r-120,-150v201,-150,352,-322,459,-530v44,-86,73,-170,91,-250"},"[":{"d":"123,397r371,-1855r526,0r-37,190r-301,0r-297,1475r301,0r-37,190r-526,0"},"]":{"d":"82,397r37,-190r299,0r297,-1475r-299,0r37,-190r524,0r-371,1855r-524,0"},"{":{"d":"436,-565v148,19,186,119,148,305r-52,254v-33,144,26,221,168,215r64,0r-37,188v-166,7,-310,-19,-373,-105v-52,-71,-69,-177,-39,-321r52,-254v28,-144,-22,-195,-160,-196r-64,0r39,-189v96,3,182,-6,228,-52v108,-109,96,-372,172,-512v89,-164,253,-240,516,-226r-37,188v-196,-15,-290,73,-322,234v-36,180,-52,382,-203,444v-29,13,-63,22,-100,27"},"}":{"d":"715,-580v-151,-19,-186,-119,-150,-307v23,-121,102,-337,-48,-373v-41,-10,-96,-10,-148,-10r37,-188v167,-7,309,19,372,104v52,71,65,177,39,322v-16,91,-71,242,-19,318v29,42,122,49,208,46r-39,189v-138,-8,-237,22,-275,117v-63,159,-68,388,-141,533v-84,167,-253,240,-516,226r37,-188v195,15,287,-74,321,-234v44,-203,49,-456,223,-528v29,-13,62,-22,99,-27"},"*":{"d":"760,-549r-209,0r31,-309r-254,180r-99,-174r287,-129r-289,-129r103,-174r252,180r-29,-309r209,0r-29,309r252,-180r98,174r-272,129r274,129r-102,174r-250,-180"},"\u0410":{"d":"760,0r-21,-258r-456,0r-125,258r-256,0r649,-1307r344,0r125,1307r-260,0xm676,-1067r-295,608r342,0"},"\u0411":{"d":"427,-782v310,-11,603,23,603,311v0,336,-239,471,-588,471r-415,0r262,-1307r829,0r-41,195r-584,0xm766,-442v0,-167,-202,-148,-377,-148r-79,393r159,0v176,-3,297,-77,297,-245"},"\u0412":{"d":"840,-684v139,24,218,146,182,316v-54,257,-269,368,-590,368r-405,0r262,-1307v340,13,809,-77,809,258v0,193,-111,311,-258,365xm561,-766v159,-3,268,-77,273,-225v5,-149,-192,-117,-342,-121r-68,346r137,0xm764,-438v0,-165,-208,-138,-379,-140r-76,377r160,0v175,-2,295,-75,295,-237"},"\u0413":{"d":"1116,-1092r-558,0r-218,1092r-245,0r261,-1307r803,0"},"\u0414":{"d":"884,-1094r-240,0r-76,290v-22,82,-43,153,-62,213v-53,158,-96,287,-203,378r405,0xm711,283r57,-283r-624,0r-59,283r-227,0r82,-496v141,2,194,-68,244,-171v127,-262,191,-576,276,-923r715,0r-219,1094r100,0r-115,496r-230,0"},"\u0415":{"d":"82,0r262,-1307r786,0r-43,208r-536,0r-66,325r512,0r-39,203r-512,0r-73,363r536,0r-41,208r-786,0"},"\u0416":{"d":"610,-1307r221,0r-122,625r331,-625r242,0r-370,643r116,664r-242,0r-83,-659r-130,659r-221,0r130,-659r-339,659r-258,0r399,-705r-112,-602r225,0r90,625"},"\u0417":{"d":"811,-680v138,31,218,163,176,337v-72,301,-410,409,-798,351v-62,-8,-140,-29,-191,-46r41,-209v129,42,233,67,383,67v184,0,311,-83,311,-248v0,-126,-102,-150,-237,-150r-298,0r39,-188r281,0v173,-1,289,-77,289,-235v0,-188,-297,-132,-444,-100r-103,26r0,-197v113,-32,251,-57,391,-57v239,0,418,78,418,285v0,197,-104,314,-258,364"},"\u0418":{"d":"684,0r166,-825r-2,0r-608,825r-248,0r262,-1307r248,0r-168,826r2,0r610,-826r248,0r-262,1307r-248,0"},"\u0419":{"d":"757,-1508v95,-3,132,-68,149,-147r227,0v-39,195,-166,285,-393,289v-206,3,-329,-79,-291,-289r220,0v-19,80,4,149,88,147xm684,0r166,-825r-2,0r-608,825r-248,0r262,-1307r248,0r-168,826r2,0r610,-826r248,0r-262,1307r-248,0"},"\u041a":{"d":"670,0r-267,-633r-127,633r-251,0r262,-1307r252,0r-117,584r502,-584r313,0r-582,633r324,674r-309,0"},"\u041b":{"d":"-41,-219v131,8,180,-65,224,-158v129,-268,198,-591,279,-930r714,0r-263,1307r-247,0r218,-1090r-241,0v-66,284,-134,532,-229,748v-62,142,-122,247,-230,315v-81,51,-172,45,-275,17"},"\u041c":{"d":"762,0r174,-1034r-338,645r-154,0r-43,-445r-14,-200r-63,289r-172,745r-209,0r325,-1307r267,0r38,371r15,209r94,-197r199,-383r295,0r-197,1307r-217,0"},"\u041d":{"d":"684,0r113,-569r-445,0r-112,569r-246,0r262,-1307r246,0r-107,525r445,0r106,-525r246,0r-262,1307r-246,0"},"\u041e":{"d":"715,-1329v277,0,428,159,424,440v-4,333,-107,599,-287,764v-93,85,-217,148,-387,148v-277,0,-428,-160,-424,-441v4,-332,107,-599,287,-764v93,-85,217,-147,387,-147xm299,-438v0,158,50,240,201,240v153,0,229,-107,285,-216v62,-120,96,-277,96,-454v0,-157,-51,-240,-201,-240v-153,0,-229,107,-285,216v-62,121,-96,277,-96,454"},"\u041f":{"d":"679,0r218,-1090r-436,0r-218,1090r-248,0r261,-1307r932,0r-261,1307r-248,0"},"\u0420":{"d":"666,-1307v264,2,458,88,458,332v0,265,-145,428,-348,509v-111,44,-257,48,-414,46r-83,420r-246,0r262,-1307r371,0xm863,-937v4,-175,-183,-170,-364,-166r-97,479v99,-1,196,7,268,-24v111,-47,189,-140,193,-289"},"\u0421":{"d":"629,-203v117,-2,217,-36,305,-71r0,221v-112,41,-216,70,-354,71v-352,3,-524,-208,-485,-564v40,-367,198,-650,517,-750v161,-51,400,-29,545,18r-47,227v-120,-47,-325,-89,-454,-21v-194,102,-287,319,-298,595v-7,180,83,278,271,274"},"\u0422":{"d":"807,-1102r-219,1102r-252,0r219,-1102r-358,0r43,-205r968,0r-43,205r-358,0"},"\u0423":{"d":"92,-217v52,14,128,28,180,6v98,-42,146,-141,211,-233r-284,-863r284,0r123,428r43,181r344,-609r293,0r-631,1012v-84,128,-162,247,-309,299v-97,34,-215,18,-303,-14"},"\u0424":{"d":"363,-96v-197,-26,-323,-128,-323,-350v0,-436,182,-697,545,-762r24,-121r234,0r-25,121v201,26,324,141,324,362v0,428,-176,696,-545,750r-25,119r-233,0xm638,-305v185,-60,256,-254,260,-496v1,-110,-34,-177,-121,-198xm544,-999v-187,60,-253,258,-260,495v-3,111,36,175,120,199"},"\u0425":{"d":"715,0r-156,-481r-344,481r-309,0r510,-670r-223,-637r276,0r145,455r322,-455r301,0r-479,637r258,670r-301,0"},"\u0426":{"d":"1057,-215r-116,498r-230,0r57,-283r-782,0r262,-1307r248,0r-219,1092r418,0r218,-1092r248,0r-219,1092r115,0"},"\u0427":{"d":"424,-993v-37,155,-8,286,170,286r231,0r121,-600r248,0r-262,1307r-248,0r100,-504r-219,0v-271,3,-433,-124,-403,-404v3,-24,7,-50,12,-75r66,-324r247,0"},"\u0428":{"d":"208,-1307r224,0r-221,1106r180,0r221,-1106r220,0r-221,1106r180,0r221,-1106r224,0r-261,1307r-1028,0"},"\u0429":{"d":"-53,0r261,-1307r224,0r-221,1106r168,0r221,-1106r219,0r-220,1106r168,0r221,-1106r224,0r-221,1106r73,0r-113,484r-208,0r57,-283r-853,0"},"\u042a":{"d":"526,-807v299,-12,541,55,541,326v0,339,-237,481,-590,481r-356,0r222,-1110r-213,0r39,-197r457,0xm504,-197v179,-3,294,-86,299,-256v4,-154,-152,-162,-316,-157r-83,413r100,0"},"\u042b":{"d":"772,-498v0,323,-191,494,-528,498r-289,0r261,-1307r235,0r-100,500v254,-9,421,81,421,309xm518,-477v6,-118,-82,-140,-207,-133r-82,413v199,14,280,-102,289,-280xm732,0r261,-1307r235,0r-261,1307r-235,0"},"\u042c":{"d":"600,-807v295,-4,508,136,442,438v-55,251,-265,369,-581,369r-434,0r261,-1307r244,0r-100,500r168,0xm788,-453v7,-183,-212,-156,-395,-157r-83,413r177,0v182,-2,295,-84,301,-256"},"\u042d":{"d":"54,-268v132,60,319,98,468,39v141,-56,223,-187,269,-342r-603,0r40,-203r595,0v14,-218,-53,-341,-270,-336v-125,3,-216,32,-313,72r0,-219v106,-45,233,-72,370,-72v323,0,491,165,484,489v-9,435,-181,740,-537,838v-177,49,-401,22,-552,-33"},"\u042e":{"d":"653,23v-279,5,-288,-325,-235,-594r-132,0r-114,571r-221,0r261,-1307r221,0r-107,533r135,0v44,-174,96,-319,183,-428v63,-78,139,-124,263,-127v324,-9,281,410,226,682v-43,212,-94,386,-191,518v-68,93,-150,149,-289,152xm618,-474v-12,115,-34,281,66,294v64,-8,96,-65,124,-126v79,-170,146,-417,146,-655v0,-84,-13,-157,-77,-165v-66,8,-99,68,-128,130v-63,135,-112,345,-131,522"},"\u042f":{"d":"215,-852v10,-327,229,-455,573,-455r377,0r-261,1307r-246,0r100,-500v-162,-8,-261,10,-324,129r-198,371r-293,0r231,-408v49,-86,117,-149,218,-176v-107,-33,-181,-124,-177,-268xm760,-1102v-176,1,-291,74,-291,238v0,123,76,172,205,171r122,0r82,-409r-118,0"},"\u0403":{"d":"870,-1446r-243,0r233,-225r330,0xm1116,-1092r-558,0r-218,1092r-245,0r261,-1307r803,0"},"\u0490":{"d":"1004,-1559r204,0r-92,461r-557,0r-219,1098r-246,0r262,-1307r588,0"},"\u0402":{"d":"854,-502v0,-126,-83,-178,-215,-178r-154,0r-136,680r-244,0r221,-1106r-207,0r43,-201r747,0r-43,201r-296,0r-46,229r174,0v238,3,404,98,404,320v0,288,-135,467,-356,535v-71,22,-149,29,-232,22r41,-211v198,13,299,-102,299,-291"},"\u0404":{"d":"1119,-1047v-118,-52,-306,-93,-447,-39v-138,53,-221,169,-271,312r600,0r-39,203r-597,0v-5,31,-7,63,-7,96v2,206,69,278,269,278v123,0,228,-37,325,-75r-2,217v-110,42,-242,77,-379,78v-324,1,-487,-157,-481,-484v8,-415,171,-711,486,-828v172,-64,430,-49,592,15"},"\u0405":{"d":"1036,-1071v-171,-53,-567,-111,-567,113v0,98,94,129,169,165r97,47v129,66,266,136,266,326v0,238,-160,356,-358,412v-195,55,-471,33,-641,-25r47,-231v107,38,231,69,373,69v159,0,299,-37,299,-180v0,-104,-90,-139,-167,-175r-98,-46v-129,-64,-263,-130,-263,-319v0,-211,138,-321,313,-379v159,-52,418,-38,573,6"},"\u0400":{"d":"659,-1671r213,225r-243,0r-299,-225r329,0xm82,0r262,-1307r786,0r-43,208r-536,0r-66,325r512,0r-39,203r-512,0r-73,363r536,0r-41,208r-786,0"},"\u0401":{"d":"555,-1690v79,0,133,51,133,129v0,87,-58,146,-143,146v-80,0,-131,-51,-131,-129v0,-87,55,-146,141,-146xm997,-1690v79,0,133,51,133,129v0,87,-58,146,-143,146v-80,0,-131,-51,-131,-129v0,-87,56,-146,141,-146xm82,0r262,-1307r786,0r-43,208r-536,0r-66,325r512,0r-39,203r-512,0r-73,363r536,0r-41,208r-786,0"},"\u0406":{"d":"268,-1105r41,-202r828,0r-41,202r-289,0r-181,903r287,0r-39,202r-827,0r39,-202r290,0r182,-903r-290,0"},"\u0407":{"d":"555,-1690v79,0,133,51,133,129v0,87,-58,146,-143,146v-80,0,-131,-51,-131,-129v0,-87,55,-146,141,-146xm997,-1690v79,0,133,51,133,129v0,87,-58,146,-143,146v-80,0,-131,-51,-131,-129v0,-87,56,-146,141,-146xm268,-1105r41,-202r828,0r-41,202r-289,0r-181,903r287,0r-39,202r-827,0r39,-202r290,0r182,-903r-290,0"},"\u0408":{"d":"178,-283v57,64,167,125,286,85v98,-33,152,-119,175,-236r135,-670r-473,0r41,-203r721,0r-186,936v-57,260,-270,431,-600,382v-99,-15,-179,-60,-236,-120"},"\u040d":{"d":"659,-1671r213,225r-243,0r-299,-225r329,0xm684,0r166,-825r-2,0r-608,825r-248,0r262,-1307r248,0r-168,826r2,0r610,-826r248,0r-262,1307r-248,0"},"\u040c":{"d":"870,-1446r-243,0r233,-225r330,0xm670,0r-267,-633r-127,633r-251,0r262,-1307r252,0r-117,584r502,-584r313,0r-582,633r324,674r-309,0"},"\u0409":{"d":"770,-809v255,-12,378,136,338,393v-40,255,-173,421,-482,416r-236,0r222,-1114r-102,0v-41,171,-78,318,-113,443v-58,206,-113,378,-191,525v-62,118,-159,193,-319,136r44,-185v62,5,88,-29,112,-73v151,-281,218,-684,309,-1039r518,0xm887,-498v4,-91,-57,-123,-155,-118r-85,423v184,12,232,-133,240,-305"},"\u040a":{"d":"1114,-510v0,305,-147,506,-465,510r-284,0r119,-596r-199,0r-119,596r-219,0r261,-1307r219,0r-104,518r199,0r104,-518r219,0r-100,498v233,-11,369,83,369,299xm887,-498v5,-103,-71,-125,-180,-118r-85,423r62,0v152,-8,196,-154,203,-305"},"\u040b":{"d":"823,-401v33,-139,9,-279,-145,-279r-193,0r-136,680r-244,0r221,-1106r-207,0r41,-201r747,0r-41,201r-296,0r-46,229r191,0v230,1,369,100,369,322v0,194,-66,375,-96,555r-242,0"},"\u040e":{"d":"757,-1508v95,-3,132,-68,149,-147r227,0v-39,195,-166,285,-393,289v-206,3,-329,-79,-291,-289r220,0v-19,80,4,149,88,147xm92,-217v52,14,128,28,180,6v98,-42,146,-141,211,-233r-284,-863r284,0r123,428r43,181r344,-609r293,0r-631,1012v-84,128,-162,247,-309,299v-97,34,-215,18,-303,-14"},"\u040f":{"d":"519,283r-230,0r50,-283r-344,0r261,-1307r248,0r-218,1092r436,0r220,-1092r248,0r-263,1307r-344,0"},"\u0462":{"d":"326,-1106r-207,0r40,-201r748,0r-40,201r-297,0r-64,320v297,-10,557,41,557,315v0,336,-239,471,-588,471r-370,0xm502,-197v176,-3,297,-78,297,-245v0,-152,-168,-152,-332,-148r-79,393r114,0"},"\u0472":{"d":"715,-1329v277,0,428,159,424,440v-4,333,-107,599,-287,764v-93,85,-217,148,-387,148v-277,0,-428,-160,-424,-441v4,-332,107,-599,287,-764v93,-85,217,-147,387,-147xm297,-438v1,158,52,241,203,241v153,0,228,-104,284,-214v22,-44,42,-97,62,-160r-541,0v-7,40,-8,87,-8,133xm883,-868v-1,-157,-53,-242,-203,-242v-143,0,-215,92,-272,191v-22,39,-42,88,-62,145r531,0v4,-27,6,-59,6,-94"},"\u0474":{"d":"1237,-1094v-82,-10,-105,29,-137,95r-488,999r-325,0r-127,-1307r266,0r72,1045r381,-834v56,-155,175,-259,403,-223"},"\u0430":{"d":"727,-184v-76,107,-186,207,-365,207v-206,0,-302,-139,-301,-353v3,-322,129,-545,351,-652v135,-65,358,-64,501,-17r174,-37r-124,632r-27,219r-18,185r-199,0xm342,-549v-32,123,-70,367,84,367v84,0,148,-74,197,-132v56,-69,112,-169,131,-268r47,-239v-74,-28,-190,-31,-261,3v-104,50,-167,150,-198,269"},"\u0431":{"d":"743,-985v259,-2,377,208,317,471v-54,235,-183,421,-394,504v-57,22,-120,33,-189,33v-296,0,-406,-186,-379,-498v45,-524,258,-900,791,-940r186,-19v27,-3,55,-8,82,-13r-45,224r-301,35v-263,16,-365,180,-453,377v99,-94,200,-172,385,-174xm335,-403v-1,140,39,231,175,227v169,-5,235,-141,282,-272v20,-55,31,-120,31,-183v0,-88,-50,-152,-143,-149v-168,6,-268,115,-319,242v-18,45,-26,90,-26,135"},"\u0432":{"d":"823,-879v171,28,261,188,215,397v-63,287,-231,498,-579,505v-313,7,-408,-249,-365,-569v50,-374,167,-696,442,-836v68,-35,145,-50,228,-50v186,0,319,77,319,256v0,166,-126,250,-260,297xm345,-554v-20,175,-21,368,155,368v156,0,233,-126,275,-252v49,-146,22,-331,-148,-324v-95,4,-171,31,-254,47v-13,56,-22,110,-28,161xm827,-1141v0,-48,-39,-87,-96,-84v-134,5,-196,92,-249,186v-21,38,-39,82,-56,130v115,-26,276,-64,336,-117v42,-37,65,-74,65,-115"},"\u0433":{"d":"875,-23v-272,56,-793,129,-793,-217v0,-174,111,-244,240,-306v102,-49,284,-75,371,-140v26,-20,37,-40,37,-78v0,-69,-75,-82,-156,-82v-107,0,-194,19,-289,43r0,-203v85,-17,206,-33,313,-32v223,3,402,58,402,264v0,171,-117,240,-244,300v-100,47,-263,74,-353,131v-29,19,-46,40,-46,81v0,74,83,86,168,86v134,0,233,-17,350,-51r0,204"},"\u0434":{"d":"811,-965v-26,-176,-118,-286,-324,-261v-23,2,-46,5,-69,9r41,-204v112,-24,248,-19,341,23v183,83,273,270,273,538v0,401,-118,721,-407,844v-62,26,-134,39,-215,39v-256,2,-394,-124,-394,-371v0,-314,142,-550,375,-654v112,-50,317,-53,379,37xm384,-667v-78,144,-146,497,103,481v167,-11,241,-151,282,-294v16,-55,22,-112,22,-169v-2,-114,-55,-185,-170,-185v-125,0,-190,82,-237,167"},"\u0435":{"d":"680,-1038v206,0,364,77,364,274v0,199,-134,275,-310,316v-103,24,-262,25,-402,24v-26,162,61,256,223,252v111,-3,233,-18,326,-45r0,190v-107,28,-241,51,-373,50v-261,-2,-420,-119,-420,-379v0,-304,140,-522,349,-628v73,-36,154,-54,243,-54xm793,-687v43,-96,-35,-174,-138,-169v-168,8,-241,124,-284,258v141,1,293,2,375,-44v24,-13,39,-28,47,-45"},"\u0436":{"d":"338,-1016r58,342v10,47,16,78,77,70r83,-412r216,0r-82,412v85,7,93,-57,125,-115r166,-297r240,0r-232,365v-40,55,-64,106,-125,133v58,33,68,111,86,188r76,330r-240,0r-60,-366v-8,-43,-16,-71,-71,-64r-85,430r-217,0r85,-430v-74,-8,-84,42,-110,90r-185,340r-256,0r279,-444v29,-42,58,-71,102,-93v-47,-37,-64,-102,-82,-174r-71,-305r223,0"},"\u0437":{"d":"780,-532v111,18,199,75,199,196v0,192,-135,279,-306,326v-183,50,-470,39,-668,-6r41,-195v188,54,559,98,658,-57v35,-55,10,-117,-40,-138v-105,-46,-299,-27,-453,-32r36,-174v212,-9,517,48,517,-152v0,-94,-113,-92,-221,-92v-116,0,-234,16,-332,41r2,-191v259,-40,681,-86,782,112v86,169,-57,331,-215,362"},"\u0438":{"d":"727,-184v-76,107,-186,203,-365,207v-217,5,-301,-160,-256,-381r134,-658r243,0r-133,662v-18,96,-2,172,76,172v84,0,148,-74,197,-132v56,-69,112,-169,131,-268r86,-434r243,0r-120,612r-27,219r-18,185r-199,0"},"\u0439":{"d":"710,-1266v95,-3,130,-68,148,-147r227,0v-38,191,-167,286,-393,289v-206,2,-329,-79,-291,-289r220,0v-19,80,5,149,89,147xm727,-184v-76,107,-186,203,-365,207v-217,5,-301,-160,-256,-381r134,-658r243,0r-133,662v-18,96,-2,172,76,172v84,0,148,-74,197,-132v56,-69,112,-169,131,-268r86,-434r243,0r-120,612r-27,219r-18,185r-199,0"},"\u043a":{"d":"251,-1016r240,0r-80,402v128,8,167,-68,226,-144r199,-258r294,0r-245,289v-77,86,-140,162,-256,199v74,26,116,99,153,180r160,348r-276,0r-111,-305v-31,-80,-64,-145,-180,-135r-87,440r-240,0"},"\u043b":{"d":"814,-801v-56,-21,-143,-23,-193,5v-149,81,-157,344,-226,504v-69,160,-139,299,-348,299v-41,0,-85,-5,-133,-15r43,-205v141,10,178,-66,218,-172v36,-97,70,-269,117,-369v81,-173,220,-281,478,-280v113,0,227,18,322,39r-199,995r-239,0"},"\u043c":{"d":"764,0r82,-535r45,-247r-86,161r-203,359r-145,0r-47,-375r-15,-145v-23,109,-45,205,-67,288v-50,188,-90,356,-212,455v-56,45,-127,54,-216,31r37,-170v88,9,109,-43,137,-110v82,-197,135,-492,194,-728r271,0r36,291r15,164r80,-156r166,-299r282,0r-137,1016r-217,0"},"\u043d":{"d":"660,0r85,-428r-395,0r-85,428r-240,0r203,-1016r240,0r-76,381r395,0r76,-381r239,0r-203,1016r-239,0"},"\u043e":{"d":"659,-1038v260,0,412,124,412,385v0,271,-114,460,-278,577v-83,59,-191,99,-326,99v-260,0,-412,-124,-412,-385v0,-271,114,-462,279,-578v83,-59,189,-98,325,-98xm320,-480v-34,160,20,299,180,292v163,-7,234,-124,281,-248v21,-56,33,-124,34,-193v1,-128,-64,-198,-188,-198v-199,0,-270,173,-307,347"},"\u043f":{"d":"399,-831v76,-106,187,-203,365,-207v218,-5,301,159,256,381r-133,657r-244,0r133,-662v19,-96,2,-172,-76,-172v-92,0,-147,72,-196,132v-59,72,-110,163,-131,268r-86,434r-244,0r121,-611r45,-405r199,0"},"\u0440":{"d":"764,-1038v207,-3,302,139,301,352v-3,322,-129,545,-351,652v-114,55,-288,64,-427,36r-80,395r-244,0r189,-940r24,-159r33,-314r199,0r-9,185v76,-106,187,-205,365,-207xm326,-195v68,26,193,32,262,-3v153,-78,223,-252,223,-472v0,-94,-26,-164,-111,-164v-92,0,-147,72,-196,132v-59,72,-110,163,-131,268"},"\u0441":{"d":"612,-195v103,0,196,-28,275,-59r0,209v-91,34,-198,62,-318,63v-281,2,-450,-122,-450,-391v0,-337,172,-547,439,-633v146,-47,367,-24,493,17r-45,229v-95,-48,-263,-89,-384,-42v-152,59,-233,201,-239,401v-4,139,88,206,229,206"},"\u0442":{"d":"690,-852v66,-84,114,-184,250,-184v164,0,205,129,166,327r-141,709r-211,0r139,-692v9,-51,14,-89,13,-114v-3,-59,-48,-41,-80,-8v-70,70,-135,182,-158,298r-103,516r-209,0r140,-692v9,-51,16,-89,14,-114v-4,-57,-47,-41,-79,-8v-69,71,-138,182,-161,298r-102,516r-211,0r121,-611r45,-405r180,0r-6,164v68,-91,124,-177,252,-184v112,-5,166,74,141,184"},"\u0443":{"d":"-115,205v98,17,211,14,273,-35v61,-48,110,-101,166,-170r-201,-1016r254,0r143,785r106,-164v111,-180,199,-356,218,-621r260,0v-42,369,-201,606,-373,856v-129,187,-253,344,-416,474v-103,82,-255,124,-430,98r0,-207"},"\u0444":{"d":"340,16v-218,-24,-329,-139,-330,-376v0,-405,185,-626,541,-672v28,-142,60,-264,123,-381r237,0v-60,119,-98,240,-127,381v220,27,329,136,330,377v1,400,-185,627,-541,671v-27,141,-61,263,-122,381r-238,0v60,-119,98,-240,127,-381xm616,-195v183,-41,254,-212,254,-438v0,-116,-34,-168,-129,-188xm508,-821v-183,40,-254,212,-254,438v0,115,35,168,129,188"},"\u0445":{"d":"700,0r-163,-342r-301,342r-306,0r484,-512r-260,-504r286,0r162,334r291,-334r285,0r-451,502r266,514r-293,0"},"\u0446":{"d":"716,-201v-78,116,-189,220,-377,224v-217,5,-301,-159,-256,-381r133,-658r244,0r-133,662v-19,96,-2,172,76,172v93,0,147,-73,197,-132v60,-71,108,-163,130,-268r86,-434r244,0r-108,543v-18,96,-34,159,-26,243v6,54,62,45,120,46r-105,440r-219,0r49,-242v-66,-32,-81,-118,-55,-215"},"\u0447":{"d":"371,-768v-28,103,-17,238,100,229v160,-12,251,-134,319,-253v37,-66,55,-142,72,-224r240,0r-203,1016r-240,0r74,-375r37,-123v-76,92,-189,153,-344,156v-232,4,-332,-133,-304,-366v14,-106,39,-206,58,-308r240,0"},"\u0448":{"d":"432,-164v-66,84,-114,184,-250,184v-164,0,-206,-129,-166,-327r142,-709r211,0r-140,692v-9,51,-15,89,-13,114v3,58,47,41,80,8v70,-70,136,-182,159,-298r102,-516r209,0r-139,692v-9,51,-14,89,-14,114v0,57,46,41,78,8v69,-71,138,-182,161,-298r102,-516r211,0r-120,612r-27,219r-19,185r-180,0r6,-164v-65,85,-117,177,-252,184v-113,6,-166,-73,-141,-184"},"\u0449":{"d":"823,14v-62,-21,-54,-123,-22,-178v-66,80,-108,177,-240,184v-113,6,-166,-73,-141,-184v-66,82,-104,184,-238,184v-164,0,-206,-129,-166,-327r142,-709r211,0r-140,692v-9,51,-14,89,-13,114v3,57,47,41,78,8v65,-71,124,-184,148,-298r103,-516r209,0r-140,692v-9,51,-15,89,-14,114v3,56,46,42,77,8v65,-72,127,-183,150,-298r103,-516r211,0r-109,543v-18,99,-36,166,-36,251v0,46,25,52,71,50r-111,428r-184,0"},"\u044a":{"d":"524,18v-206,-1,-349,-60,-350,-264v0,-34,3,-73,12,-116r93,-455r-207,0r39,-199r446,0r-74,367v276,-22,566,12,566,274v0,198,-129,304,-291,359v-66,22,-144,34,-234,34xm424,-358v-30,110,5,194,129,188v140,-7,248,-52,248,-182v0,-126,-162,-115,-294,-114v-21,1,-42,3,-63,7"},"\u044b":{"d":"315,-627v33,-7,67,-8,109,-8v192,2,319,79,319,264v0,255,-164,382,-434,387v-204,4,-330,-94,-289,-301r144,-731r229,0xm258,-350v-20,85,-34,200,72,194v116,-6,161,-90,166,-204v5,-107,-114,-114,-215,-95xm731,0r203,-1016r229,0r-202,1016r-230,0"},"\u044c":{"d":"496,23v-251,0,-431,-71,-400,-329v3,-19,6,-40,10,-63r130,-647r237,0r-74,367v71,-6,130,-18,209,-17v247,2,434,67,434,295v0,199,-124,305,-290,359v-69,23,-155,35,-256,35xm334,-285v-2,103,79,119,184,119v145,0,266,-50,266,-184v0,-101,-88,-125,-198,-127v-95,-1,-156,10,-226,22v-8,55,-25,110,-26,170"},"\u044d":{"d":"88,-244v138,63,400,88,522,-8v54,-43,92,-102,117,-172r-536,0r35,-174r532,0v-2,-166,-74,-230,-246,-231v-118,0,-201,19,-286,55r0,-205v91,-34,208,-59,327,-59v295,-2,470,129,463,420v-9,406,-228,636,-647,641v-134,2,-231,-16,-326,-47"},"\u044e":{"d":"662,23v-244,0,-299,-216,-256,-453r-144,0r-86,430r-215,0r203,-1016r215,0r-80,402r139,0v34,-139,86,-244,157,-316v71,-72,154,-108,251,-108v242,-1,299,205,268,456v-31,247,-107,469,-288,567v-47,25,-101,38,-164,38xm900,-596v13,-106,20,-247,-75,-256v-97,13,-132,110,-163,196v-35,97,-55,217,-58,341v-4,138,72,188,147,123v94,-82,129,-247,149,-404"},"\u044f":{"d":"345,-447v-90,-26,-165,-99,-165,-212v0,-421,511,-388,920,-357r-203,1016r-239,0r74,-373v-120,-3,-231,-2,-289,65v-75,88,-128,209,-193,308r-295,0r194,-295v50,-73,103,-128,196,-152xm825,-846v-182,-12,-390,-11,-387,172v2,147,182,119,330,123"},"\u0453":{"d":"811,-1151r-244,0r273,-262r329,0xm875,-23v-272,56,-793,129,-793,-217v0,-174,111,-244,240,-306v102,-49,284,-75,371,-140v26,-20,37,-40,37,-78v0,-69,-75,-82,-156,-82v-107,0,-194,19,-289,43r0,-203v85,-17,206,-33,313,-32v223,3,402,58,402,264v0,171,-117,240,-244,300v-100,47,-263,74,-353,131v-29,19,-46,40,-46,81v0,74,83,86,168,86v134,0,233,-17,350,-51r0,204"},"\u0491":{"d":"508,-807r-162,807r-246,0r203,-1016r574,0r61,-252r207,0r-92,461r-545,0"},"\u0452":{"d":"760,-993v178,0,268,95,268,276v0,306,-101,669,-205,897v-78,169,-214,247,-463,240r39,-195v146,6,192,-69,231,-179v72,-205,150,-473,150,-732v0,-63,-18,-105,-78,-105v-95,0,-152,72,-202,133v-60,72,-109,163,-131,269r-78,389r-244,0r223,-1118r-149,0r37,-182r149,0r23,-113r243,0r-22,113r266,0r-37,182r-266,0v-22,111,-57,209,-90,309v68,-103,173,-184,336,-184"},"\u0454":{"d":"1053,-774v-138,-61,-395,-82,-514,12v-54,43,-95,99,-119,170r534,0r-35,174r-532,0v2,170,68,231,244,232v125,0,212,-24,307,-61r0,207v-106,37,-226,63,-360,63v-287,-1,-453,-123,-453,-408v0,-325,167,-535,429,-621v156,-51,399,-34,544,11"},"\u0455":{"d":"792,-61v-157,110,-505,96,-714,45r0,-220v115,40,234,70,368,72v127,1,224,-32,224,-131v0,-61,-45,-76,-94,-98v-24,-11,-56,-21,-95,-33v-159,-51,-280,-121,-280,-301v0,-169,131,-246,278,-287v142,-40,368,-25,504,4r0,199v-106,-32,-192,-47,-305,-47v-114,0,-217,24,-217,119v0,67,48,86,103,107v162,62,370,106,370,310v0,128,-63,205,-142,261"},"\u0450":{"d":"680,-1038v206,0,364,77,364,274v0,199,-134,275,-310,316v-103,24,-262,25,-402,24v-26,162,61,256,223,252v111,-3,233,-18,326,-45r0,190v-107,28,-241,51,-373,50v-261,-2,-420,-119,-420,-379v0,-304,140,-522,349,-628v73,-36,154,-54,243,-54xm793,-687v43,-96,-35,-174,-138,-169v-168,8,-241,124,-284,258v141,1,293,2,375,-44v24,-13,39,-28,47,-45xm559,-1413r252,262r-244,0r-338,-262r330,0"},"\u0451":{"d":"516,-1430v78,0,131,53,131,130v0,87,-58,145,-143,145v-80,0,-131,-52,-131,-129v0,-87,57,-146,143,-146xm934,-1430v78,0,131,53,131,130v0,86,-57,145,-143,145v-80,0,-131,-52,-131,-129v0,-87,57,-146,143,-146xm680,-1038v206,0,364,77,364,274v0,199,-134,275,-310,316v-103,24,-262,25,-402,24v-26,162,61,256,223,252v111,-3,233,-18,326,-45r0,190v-107,28,-241,51,-373,50v-261,-2,-420,-119,-420,-379v0,-304,140,-522,349,-628v73,-36,154,-54,243,-54xm793,-687v43,-96,-35,-174,-138,-169v-168,8,-241,124,-284,258v141,1,293,2,375,-44v24,-13,39,-28,47,-45"},"\u0456":{"d":"164,-959v79,-43,176,-80,291,-80v231,0,316,118,266,371r-66,328v-20,110,-13,172,76,172v89,0,156,-41,234,-76r0,187v-79,42,-178,80,-291,80v-233,0,-318,-116,-266,-371r65,-328v21,-110,11,-172,-76,-172v-88,0,-157,41,-233,76r0,-187xm700,-1454v95,0,156,59,156,151v0,102,-69,168,-170,168v-94,0,-158,-58,-158,-151v0,-102,71,-168,172,-168"},"\u0457":{"d":"164,-958v79,-43,176,-80,291,-80v231,0,316,117,266,370r-66,328v-20,110,-13,172,76,172v89,0,156,-41,234,-76r0,187v-79,42,-178,80,-291,80v-233,0,-318,-116,-266,-371r65,-328v21,-110,11,-172,-76,-172v-88,0,-157,41,-233,76r0,-186xm516,-1430v78,0,131,53,131,130v0,87,-58,145,-143,145v-80,0,-131,-52,-131,-129v0,-87,57,-146,143,-146xm934,-1430v78,0,131,53,131,130v0,86,-57,145,-143,145v-80,0,-131,-52,-131,-129v0,-87,57,-146,143,-146"},"\u0458":{"d":"47,127v50,54,116,98,219,98v165,0,241,-103,271,-252r135,-675v18,-96,-4,-146,-94,-146v-133,0,-234,47,-338,82r0,-191v120,-47,240,-82,397,-82v241,0,327,113,276,371r-127,641v-56,280,-219,447,-546,447v-145,0,-259,-42,-342,-125xm887,-1454v94,0,155,59,155,151v0,102,-68,168,-170,168v-94,0,-157,-59,-157,-151v0,-102,71,-168,172,-168"},"\u045d":{"d":"727,-184v-76,107,-186,203,-365,207v-217,5,-301,-160,-256,-381r134,-658r243,0r-133,662v-18,96,-2,172,76,172v84,0,148,-74,197,-132v56,-69,112,-169,131,-268r86,-434r243,0r-120,612r-27,219r-18,185r-199,0xm541,-1413r252,262r-244,0r-338,-262r330,0"},"\u045c":{"d":"811,-1151r-244,0r273,-262r329,0xm251,-1016r240,0r-80,402v128,8,167,-68,226,-144r199,-258r294,0r-245,289v-77,86,-140,162,-256,199v74,26,116,99,153,180r160,348r-276,0r-111,-305v-31,-80,-64,-145,-180,-135r-87,440r-240,0"},"\u0459":{"d":"569,-852v-147,-22,-155,123,-188,250v-56,214,-94,414,-205,548v-59,72,-167,86,-278,55r39,-180v69,9,93,-24,118,-68v152,-266,69,-798,510,-787v88,2,173,12,248,26r-76,373v205,-23,350,59,344,258v-7,239,-132,390,-381,395v-186,4,-287,-100,-250,-283xm672,-305v-15,59,-23,156,49,151v104,-6,137,-112,137,-215v0,-63,-23,-99,-90,-98v-31,0,-44,1,-66,4"},"\u045a":{"d":"692,18v-170,0,-270,-67,-270,-231v0,-85,26,-165,39,-242r-197,0r-90,455r-213,0r203,-1016r213,0r-78,393r197,0r77,-393r213,0r-77,387v27,-7,67,-10,100,-10v174,0,276,78,276,248v0,184,-92,310,-223,373v-49,24,-105,36,-170,36xm653,-348v-17,80,-44,203,60,194v104,-10,140,-104,149,-213v8,-102,-104,-116,-188,-86"},"\u045b":{"d":"446,-809v80,-97,161,-178,328,-184v213,-7,277,164,237,367r-124,626r-244,0r129,-644v12,-76,-1,-149,-82,-144v-83,5,-136,64,-182,122v-57,71,-110,172,-131,277r-78,389r-244,0r224,-1118r-150,0r37,-182r149,0r23,-113r244,0r-23,113r266,0r-37,182r-266,0v-17,111,-49,208,-76,309"},"\u045e":{"d":"710,-1266v95,-3,130,-68,148,-147r227,0v-38,191,-167,286,-393,289v-206,2,-329,-79,-291,-289r220,0v-19,80,5,149,89,147xm-115,205v98,17,211,14,273,-35v61,-48,110,-101,166,-170r-201,-1016r254,0r143,785r106,-164v111,-180,199,-356,218,-621r260,0v-42,369,-201,606,-373,856v-129,187,-253,344,-416,474v-103,82,-255,124,-430,98r0,-207"},"\u045f":{"d":"522,256r-223,0r43,-256r-317,0r202,-1016r240,0r-162,811r395,0r162,-811r240,0r-203,1016r-317,0"},"\u0463":{"d":"530,18v-234,2,-397,-73,-374,-314v2,-16,5,-33,8,-50r98,-481r-182,0r37,-189r182,0r53,-260r252,-65r-65,325r395,0r-37,189r-395,0r-41,204v268,-27,588,-12,588,256v0,206,-139,308,-307,358v-64,18,-135,27,-212,27xm397,-285v0,91,54,115,156,115v142,1,246,-49,246,-172v0,-142,-244,-103,-377,-92v-9,46,-25,97,-25,149"},"\u0473":{"d":"341,-245v62,91,244,80,325,3v46,-44,87,-103,118,-184r-475,0v-9,77,1,138,32,181xm786,-766v-39,-64,-171,-90,-260,-48v-89,42,-143,124,-182,214r475,0v8,-67,-8,-125,-33,-166xm659,-1038v260,0,412,124,412,385v0,271,-114,460,-278,577v-83,59,-191,99,-326,99v-260,0,-412,-124,-412,-385v0,-271,114,-462,279,-578v83,-59,189,-98,325,-98"},"\u0475":{"d":"1159,-803v-84,-20,-114,36,-145,90r-410,713r-280,0r-201,-1016r262,0r96,576r25,186r90,-178r195,-371v68,-151,178,-261,413,-223"},"^":{"d":"858,-668r-174,-462r-346,462r-221,0r504,-639r186,0r266,639r-215,0"},"~":{"d":"788,-532v88,0,103,-85,109,-177r205,0v-15,218,-99,388,-328,388v-190,0,-250,-151,-366,-229v-18,-12,-37,-19,-58,-19v-87,0,-100,85,-106,176r-205,0v15,-218,96,-387,326,-387v190,0,250,150,365,230v18,12,37,18,58,18"},"\\":{"d":"532,-1413r371,1628r-229,0r-371,-1628r229,0"},"_":{"d":"-184,410r39,-193r1124,0r-39,193r-1124,0"},"'":{"d":"748,-915r-209,0r67,-498r275,0"},"\"":{"d":"537,-915r-197,0r68,-498r262,0xm946,-915r-196,0r67,-498r262,0"},"@":{"d":"795,-1436v312,0,412,266,379,596v-27,270,-92,525,-228,690v-46,56,-105,102,-194,103v-94,1,-141,-48,-150,-131v-38,68,-94,127,-190,131v-221,8,-159,-325,-114,-491v45,-164,115,-315,254,-386v63,-32,168,-29,226,0r158,-32r-150,546v-15,59,-29,99,-32,150v-1,21,3,31,18,33v51,-12,77,-78,99,-135v63,-163,118,-371,118,-586v0,-184,-49,-314,-217,-314v-176,0,-268,131,-347,250v-155,236,-275,533,-275,906v0,208,56,352,247,352v137,0,239,-38,340,-90r0,180v-96,47,-227,84,-356,84v-299,0,-422,-189,-422,-494v0,-452,149,-807,348,-1077v80,-109,181,-196,307,-249v58,-24,118,-36,181,-36xm453,-270v-3,41,24,51,45,26v97,-113,129,-334,182,-510v-29,-20,-73,-14,-96,19v-79,112,-115,290,-131,465"},"$":{"d":"508,-211v138,-14,257,-77,226,-221v-11,-53,-62,-77,-118,-96xm1040,-1063v-67,-19,-147,-26,-223,-35r-117,340v154,71,310,122,310,332v0,230,-164,339,-352,394v-69,20,-144,29,-222,30r-88,250r-176,0r88,-252v-96,-9,-183,-23,-264,-49r47,-219v85,30,187,48,289,59r129,-377v-149,-66,-283,-134,-283,-338v0,-196,141,-289,304,-342v66,-21,144,-33,231,-35r71,-204r177,0r-72,213v67,7,136,17,194,32xm641,-1100v-110,11,-201,51,-201,154v0,69,43,101,107,127"},"#":{"d":"805,-340r-102,340r-196,0r104,-340r-233,0r-102,340r-196,0r103,-340r-176,0r36,-183r194,0r87,-287r-170,0r36,-183r188,0r95,-314r196,0r-95,314r231,0r95,-314r196,0r-95,314r178,0r-36,183r-196,0r-87,287r172,0r-36,183r-191,0xm751,-810r-231,0r-87,287r231,0"},"0":{"d":"727,-1329v273,0,397,175,397,455v0,402,-146,721,-436,853v-66,29,-143,44,-229,44v-273,0,-398,-175,-398,-455v0,-403,147,-720,437,-853v66,-29,143,-44,229,-44xm872,-946v-14,-113,-66,-184,-182,-184v-122,0,-196,85,-249,170v-59,96,-101,230,-119,362xm313,-360v15,113,66,184,183,184v176,0,245,-147,302,-280v32,-75,52,-163,66,-253"},"1":{"d":"49,0r43,-217r334,0r168,-840r-324,160r-51,-199r459,-219r217,0r-219,1098r287,0r-43,217r-871,0"},"2":{"d":"688,-1329v221,0,373,99,373,317v0,208,-101,314,-218,432v-114,114,-293,244,-427,355r542,0r-45,225r-886,0r36,-190r371,-310v119,-99,210,-178,288,-281v45,-60,69,-107,69,-192v0,-85,-51,-142,-144,-139v-125,3,-206,62,-289,123r-122,-166v120,-92,257,-174,452,-174"},"3":{"d":"778,-686v158,20,249,149,211,332v-74,351,-525,414,-952,354r41,-211v85,17,189,27,295,26v203,-2,366,-57,366,-247v0,-175,-240,-147,-430,-150r39,-186v234,9,443,-24,443,-238v0,-95,-77,-118,-179,-118v-121,0,-204,22,-307,51r0,-201v270,-89,746,-105,746,227v0,198,-116,307,-273,361"},"4":{"d":"836,-266r-54,266r-237,0r53,-266r-608,0r41,-215r665,-826r348,0r-165,826r198,0r-43,215r-198,0xm764,-1071r-483,590r366,0"},"5":{"d":"467,-811v284,-6,524,46,524,313v0,266,-156,407,-369,478v-154,51,-395,46,-569,16r43,-213v75,19,175,31,273,31v205,-3,360,-78,360,-267v0,-216,-313,-146,-528,-159r139,-695r754,0r-47,230r-527,0"},"6":{"d":"666,-815v224,3,368,100,368,317v0,247,-134,403,-320,479v-69,28,-148,42,-237,42v-292,0,-420,-199,-381,-507v55,-427,226,-751,655,-810v102,-14,229,-13,349,-13r-43,207v-126,1,-270,-5,-363,24v-156,48,-240,158,-280,318v74,-31,150,-57,252,-57xm344,-379v0,133,49,197,172,197v168,0,253,-118,262,-281v11,-209,-296,-155,-413,-86v-11,58,-20,111,-21,170"},"7":{"d":"397,0r-291,0r734,-1071r-623,0r49,-236r908,0r-48,236"},"8":{"d":"1100,-1057v0,207,-151,297,-291,377v94,62,186,137,186,287v0,205,-130,322,-296,381v-67,24,-145,35,-236,35v-224,0,-404,-71,-404,-283v0,-230,165,-331,322,-416v-104,-61,-201,-181,-153,-350v56,-199,229,-303,489,-303v212,0,383,69,383,272xm688,-1141v-132,0,-227,50,-227,172v0,99,74,135,160,183v90,-47,178,-91,223,-176v11,-22,16,-47,16,-74v0,-85,-79,-105,-172,-105xm494,-170v142,0,249,-57,249,-192v0,-118,-94,-153,-174,-203v-87,43,-152,87,-197,129v-45,42,-67,89,-67,141v0,95,86,125,189,125"},"9":{"d":"698,-1329v258,3,387,141,387,405v0,310,-96,564,-256,727v-158,161,-442,209,-782,197r41,-209v201,2,404,3,518,-81v81,-60,128,-146,156,-259v-72,31,-154,58,-252,57v-222,-2,-369,-97,-369,-315v0,-253,138,-408,328,-483v69,-26,145,-39,229,-39xm811,-758v35,-165,43,-377,-152,-366v-169,10,-256,119,-262,286v-7,204,299,149,414,80"},"%":{"d":"101,0r-208,0r1210,-1413r209,0xm477,-1432v166,-3,255,119,222,294v-33,174,-119,312,-324,317v-167,4,-255,-118,-222,-294v33,-174,119,-312,324,-317xm395,-973v104,0,131,-118,131,-221v0,-57,-23,-86,-69,-86v-104,0,-131,118,-131,221v0,57,23,86,69,86xm829,-592v167,-4,255,119,222,294v-33,174,-120,311,-324,316v-166,4,-254,-119,-221,-294v33,-174,118,-311,323,-316xm748,-133v104,0,131,-118,131,-221v0,-57,-23,-86,-70,-86v-104,0,-131,118,-131,221v0,57,23,86,70,86"},"+":{"d":"662,-444r-77,389r-225,0r77,-389r-373,0r41,-201r373,0r77,-387r225,0r-77,387r373,0r-41,201r-373,0"},"=":{"d":"160,-646r39,-194r860,0r-39,194r-860,0xm81,-252r39,-194r860,0r-39,194r-860,0"},"<":{"d":"680,23r-571,-578r774,-557r137,170r-578,405r414,414"},">":{"d":"459,-1112r571,577r-778,558r-133,-168r577,-408r-413,-412"},"\u048a":{"d":"678,0r166,-825r-2,0r-608,825r-248,0r262,-1307r248,0r-168,826r2,0r610,-826r248,0r-220,1094r99,0r-230,536r-223,0r138,-323r-74,0xm751,-1508v95,-3,132,-68,149,-147r227,0v-39,195,-166,285,-393,289v-206,3,-329,-79,-291,-289r220,0v-19,80,4,149,88,147"},"\u048c":{"d":"600,-807v295,-4,508,137,442,438v-55,251,-265,369,-581,369r-434,0r195,-979r-129,0r36,-182r130,0r29,-146r244,0r-29,146r272,0r-36,182r-273,0r-34,172r168,0xm788,-453v7,-183,-212,-156,-395,-157r-83,413r177,0v182,-2,295,-84,301,-256"},"\u048e":{"d":"503,-726r158,-113r311,438r-158,114xm666,-1307v264,2,458,88,458,332v0,265,-145,428,-348,509v-111,44,-257,48,-414,46r-83,420r-246,0r262,-1307r371,0xm863,-937v4,-175,-183,-170,-364,-166r-97,479v99,-1,196,7,268,-24v111,-47,189,-140,193,-289"},"\u0492":{"d":"51,-770r197,0r108,-537r803,0r-43,209r-557,0r-66,328r304,0r-39,195r-304,0r-114,575r-246,0r115,-575r-196,0"},"\u0494":{"d":"500,-814v322,-26,522,116,520,428v-2,367,-154,619,-413,735v-89,40,-191,60,-306,61r40,-218v289,-41,427,-238,434,-563v5,-219,-177,-260,-393,-231r-120,602r-244,0r261,-1307r802,0r-40,201r-558,0r-60,298"},"\u0496":{"d":"593,-1307r221,0r-122,625r331,-625r242,0r-370,643r78,449r106,0r-116,498r-230,0r57,-283r-21,0r-83,-659r-130,659r-221,0r130,-659r-339,659r-258,0r399,-705r-112,-602r225,0r90,625"},"\u0498":{"d":"360,405v-52,0,-112,-3,-155,-10r0,-154v96,8,210,10,206,-90v-3,-65,-32,-99,-76,-151r189,0v52,53,93,116,93,198v0,137,-107,210,-257,207xm811,-680v138,31,218,163,176,337v-72,301,-410,409,-798,351v-62,-8,-140,-29,-191,-46r41,-209v129,42,233,67,383,67v184,0,311,-83,311,-248v0,-126,-102,-150,-237,-150r-298,0r39,-188r281,0v173,-1,289,-77,289,-235v0,-188,-297,-132,-444,-100r-103,26r0,-197v113,-32,251,-57,391,-57v239,0,418,78,418,285v0,197,-104,314,-258,364"},"\u049a":{"d":"670,0r-267,-633r-127,633r-251,0r262,-1307r252,0r-117,584r502,-584r313,0r-582,633r221,459r142,0r-116,498r-230,0r57,-283r-59,0"},"\u049c":{"d":"621,-772r20,0r311,-535r285,0r-407,633r149,674r-279,0r-96,-572r-23,0r-44,222r-149,0r45,-222r-42,0r-115,572r-251,0r262,-1307r252,0r-107,535r41,0r44,-222r149,0"},"\u049e":{"d":"670,0r-267,-633r-127,633r-251,0r196,-978r-117,0r39,-195r117,0r27,-134r252,0r-27,134r122,0r-39,195r-122,0r-51,255r502,-584r313,0r-582,633r324,674r-309,0"},"\u04a0":{"d":"710,0r-267,-633r-127,633r-251,0r223,-1112r-169,0r39,-195r421,0r-117,584r502,-584r313,0r-582,633r324,674r-309,0"},"\u04a2":{"d":"973,-215r106,0r-116,498r-230,0r57,-283r-106,0r113,-569r-445,0r-112,569r-246,0r262,-1307r246,0r-107,525r445,0r106,-525r246,0"},"\u04a4":{"d":"603,0r114,-569r-364,0r-114,569r-245,0r260,-1307r246,0r-105,525r364,0r105,-525r421,0r-39,195r-175,0r-222,1112r-246,0"},"\u04a6":{"d":"837,-478v0,-103,-48,-149,-152,-125r-120,603r-214,0r222,-1112r-174,0r-224,1112r-211,0r260,-1307r602,0r-102,507r74,-5v372,-7,244,557,171,801v-72,241,-181,421,-494,414r40,-203v153,-7,194,-107,238,-237v30,-93,84,-336,84,-448"},"\u04a8":{"d":"1100,-720v0,267,-119,453,-267,584v51,33,145,38,222,23r-44,214v-170,17,-310,-25,-396,-106v-43,13,-100,23,-154,23v-318,3,-439,-219,-404,-550v38,-360,177,-636,449,-754v115,-49,264,-54,397,-26r-43,217v-155,-34,-298,2,-386,101v-101,114,-164,325,-164,550v0,160,47,259,196,261v-94,-235,-31,-591,112,-721v54,-49,124,-90,224,-90v170,0,258,98,258,274xm720,-259v90,-110,159,-267,159,-458v0,-45,-8,-77,-51,-77v-87,19,-108,127,-126,222v-19,100,-15,233,18,313"},"\u04aa":{"d":"441,405v-52,0,-112,-3,-155,-10r0,-154v96,8,210,10,206,-90v-3,-65,-32,-99,-76,-151r189,0v52,53,93,116,93,198v0,137,-107,210,-257,207xm629,-203v117,-2,217,-36,305,-71r0,221v-112,41,-216,70,-354,71v-352,3,-524,-208,-485,-564v40,-367,198,-650,517,-750v161,-51,400,-29,545,18r-47,227v-120,-47,-325,-89,-454,-21v-194,102,-287,319,-298,595v-7,180,83,278,271,274"},"\u04ac":{"d":"807,-1102r-177,887r129,0r-116,498r-230,0r57,-283r-134,0r219,-1102r-358,0r43,-205r968,0r-43,205r-358,0"},"\u04ae":{"d":"674,-463r-91,463r-250,0r93,-461r-256,-846r258,0r113,404r49,198r131,-204r276,-398r277,0"},"\u04b0":{"d":"176,-434r245,0r5,-27r-256,-846r258,0r113,404r49,198r131,-204r276,-398r277,0r-600,844r-6,29r254,0r-39,195r-253,0r-47,239r-250,0r48,-239r-244,0"},"\u04b2":{"d":"715,0r-156,-481r-344,481r-309,0r510,-670r-223,-637r276,0r145,455r322,-455r301,0r-479,637r175,455r134,0r-116,498r-230,0r57,-283r-63,0"},"\u04b4":{"d":"941,-215r115,0r-116,498r-230,0r57,-283r-715,0r224,-1112r-158,0r39,-195r586,0r-39,195r-182,0r-179,897r351,0r218,-1092r247,0"},"\u04b6":{"d":"424,-993v-37,155,-8,286,170,286r231,0r121,-600r248,0r-219,1092r102,0r-116,498r-230,0r57,-283r-104,0r100,-504r-219,0v-271,3,-433,-124,-403,-404v3,-24,7,-50,12,-75r66,-324r247,0"},"\u04b8":{"d":"495,-507v-227,-17,-362,-146,-333,-401v3,-24,7,-50,12,-75r66,-324r247,0v-24,140,-77,287,-77,437v0,97,39,145,126,159r51,-255r159,0r-52,259r131,0r121,-600r248,0r-262,1307r-248,0r100,-504r-131,0r-36,182r-159,0"},"\u04ba":{"d":"770,-437v0,-117,-58,-163,-184,-163r-231,0r-121,600r-248,0r262,-1307r248,0r-100,504r219,0v270,-1,434,124,403,405v-3,24,-7,49,-12,74r-66,324r-247,0v24,-140,77,-287,77,-437"},"\u04bc":{"d":"841,-1322v221,3,337,126,337,342v0,226,-140,349,-320,412v-100,35,-233,38,-370,36v-3,23,-6,46,-8,68v-22,168,45,261,212,261v126,0,217,-29,306,-65r0,226v-102,37,-203,60,-336,60v-284,-1,-439,-134,-441,-413v0,-47,4,-91,10,-135v-142,-12,-238,-75,-238,-223v0,-84,24,-137,59,-197r201,0v-27,48,-82,137,-39,200v9,14,29,21,55,22v58,-268,166,-493,413,-572v48,-15,101,-22,159,-22xm939,-973v0,-86,-38,-151,-126,-147v-149,6,-204,126,-248,246v-18,49,-30,103,-41,160v236,13,415,-43,415,-259"},"\u04be":{"d":"841,-1322v221,3,337,126,337,342v0,226,-140,349,-320,412v-100,35,-233,38,-370,36v-3,23,-6,46,-8,68v-22,168,45,261,212,261v126,0,217,-29,306,-65r0,226v-83,32,-167,51,-270,58r-62,267r-230,0r58,-284v-176,-47,-272,-175,-273,-394v0,-47,4,-91,10,-135v-142,-12,-238,-75,-238,-223v0,-84,24,-137,59,-197r201,0v-27,48,-82,137,-39,200v9,14,29,21,55,22v58,-268,166,-493,413,-572v48,-15,101,-22,159,-22xm939,-973v0,-86,-38,-151,-126,-147v-149,6,-204,126,-248,246v-18,49,-30,103,-41,160v236,13,415,-43,415,-259"},"\u04c0":{"d":"268,-1105r41,-202r828,0r-41,202r-289,0r-181,903r287,0r-39,202r-827,0r39,-202r290,0r182,-903r-290,0"},"\u04c1":{"d":"756,-1508v95,-3,132,-68,149,-147r227,0v-39,195,-166,285,-393,289v-206,3,-329,-79,-291,-289r220,0v-19,80,4,149,88,147xm610,-1307r221,0r-122,625r331,-625r242,0r-370,643r116,664r-242,0r-83,-659r-130,659r-221,0r130,-659r-339,659r-258,0r399,-705r-112,-602r225,0r90,625"},"\u04c3":{"d":"758,-313v5,-202,-179,-231,-378,-208r-104,521r-251,0r262,-1307r252,0r-117,584r502,-584r313,0r-539,586v185,45,305,165,305,394v0,346,-156,575,-405,681v-87,37,-186,55,-297,56r40,-218v269,-36,410,-208,417,-505"},"\u04c5":{"d":"-41,-219v131,8,180,-65,224,-158v129,-268,198,-591,279,-930r714,0r-220,1094r98,0r-230,536r-223,0r138,-323r-73,0r218,-1090r-241,0v-66,284,-134,532,-229,748v-62,142,-122,247,-230,315v-81,51,-172,45,-275,17"},"\u04c7":{"d":"256,178v117,28,280,24,346,-45v51,-54,79,-126,99,-220r96,-482r-445,0r-112,569r-246,0r262,-1307r246,0r-107,525r445,0r106,-525r246,0r-253,1262v-55,282,-195,460,-532,456v-67,0,-140,-9,-193,-23"},"\u04c9":{"d":"684,0r113,-569r-445,0r-112,569r-246,0r262,-1307r246,0r-107,525r445,0r106,-525r246,0r-220,1094r99,0r-230,536r-223,0r144,-323r-78,0"},"\u04cb":{"d":"424,-993v-37,155,-8,286,170,286r231,0r121,-600r248,0r-262,1307r-278,0r-56,283r-230,0r83,-496r275,0r58,-291r-219,0v-270,1,-434,-123,-403,-404v3,-24,7,-50,12,-75r66,-324r247,0"},"\u04cd":{"d":"762,0r174,-1034r-338,645r-154,0r-43,-445r-14,-200r-63,289r-172,745r-209,0r325,-1307r267,0r38,371r15,209r94,-197r199,-383r295,0r-165,1094r134,0r-230,536r-223,0r138,-323r-68,0"},"\u04d0":{"d":"678,-1646v29,103,236,64,237,-33r177,0v-32,158,-146,254,-336,254v-167,0,-271,-80,-252,-254r174,0v-2,11,-2,22,0,33xm760,0r-21,-258r-456,0r-125,258r-256,0r649,-1307r344,0r125,1307r-260,0xm676,-1067r-295,608r342,0"},"\u04d2":{"d":"555,-1690v79,0,133,51,133,129v0,87,-58,146,-143,146v-80,0,-131,-51,-131,-129v0,-87,55,-146,141,-146xm997,-1690v79,0,133,51,133,129v0,87,-58,146,-143,146v-80,0,-131,-51,-131,-129v0,-87,56,-146,141,-146xm760,0r-21,-258r-456,0r-125,258r-256,0r649,-1307r344,0r125,1307r-260,0xm676,-1067r-295,608r342,0"},"\u04d4":{"d":"485,0r52,-262r-295,0r-142,262r-252,0r758,-1307r629,0r-41,199r-268,0r-68,338r252,0r-39,195r-252,0r-76,376r279,0r-39,199r-498,0xm707,-1108r-363,659r229,0"},"\u04d6":{"d":"678,-1646v29,103,236,64,237,-33r177,0v-32,158,-146,254,-336,254v-167,0,-271,-80,-252,-254r174,0v-2,11,-2,22,0,33xm82,0r262,-1307r786,0r-43,208r-536,0r-66,325r512,0r-39,203r-512,0r-73,363r536,0r-41,208r-786,0"},"\u04d8":{"d":"557,-1104v-155,0,-278,38,-387,82r2,-227v124,-47,256,-76,424,-76v352,-1,537,196,503,565v-32,343,-161,613,-414,732v-68,32,-144,46,-225,46v-259,0,-448,-100,-448,-358v0,-314,242,-402,553,-406r264,0v6,-37,9,-71,9,-103v0,-178,-100,-255,-281,-255xm276,-355v-6,149,173,191,292,131v114,-57,173,-185,217,-319v-228,3,-500,-36,-509,188"},"\u04da":{"d":"477,-1690v79,0,133,51,133,129v0,87,-58,146,-143,146v-80,0,-131,-51,-131,-129v0,-87,55,-146,141,-146xm919,-1690v79,0,133,51,133,129v0,87,-58,146,-143,146v-80,0,-131,-51,-131,-129v0,-87,56,-146,141,-146xm557,-1104v-155,0,-278,38,-387,82r2,-227v124,-47,256,-76,424,-76v352,-1,537,196,503,565v-32,343,-161,613,-414,732v-68,32,-144,46,-225,46v-259,0,-448,-100,-448,-358v0,-314,242,-402,553,-406r264,0v6,-37,9,-71,9,-103v0,-178,-100,-255,-281,-255xm276,-355v-6,149,173,191,292,131v114,-57,173,-185,217,-319v-228,3,-500,-36,-509,188"},"\u04dc":{"d":"551,-1690v79,0,133,51,133,129v0,87,-58,146,-143,146v-80,0,-131,-51,-131,-129v0,-87,55,-146,141,-146xm993,-1690v79,0,133,51,133,129v0,87,-58,146,-143,146v-80,0,-131,-51,-131,-129v0,-87,56,-146,141,-146xm610,-1307r221,0r-122,625r331,-625r242,0r-370,643r116,664r-242,0r-83,-659r-130,659r-221,0r130,-659r-339,659r-258,0r399,-705r-112,-602r225,0r90,625"},"\u04de":{"d":"498,-1690v79,0,133,51,133,129v0,87,-58,146,-143,146v-80,0,-131,-51,-131,-129v0,-87,55,-146,141,-146xm940,-1690v79,0,133,51,133,129v0,87,-58,146,-143,146v-80,0,-131,-51,-131,-129v0,-87,56,-146,141,-146xm811,-680v138,31,218,163,176,337v-72,301,-410,409,-798,351v-62,-8,-140,-29,-191,-46r41,-209v129,42,233,67,383,67v184,0,311,-83,311,-248v0,-126,-102,-150,-237,-150r-298,0r39,-188r281,0v173,-1,289,-77,289,-235v0,-188,-297,-132,-444,-100r-103,26r0,-197v113,-32,251,-57,391,-57v239,0,418,78,418,285v0,197,-104,314,-258,364"},"\u04e0":{"d":"1007,-451v0,325,-221,473,-568,474v-169,0,-310,-23,-435,-65r41,-214v127,41,243,70,399,70v181,0,297,-82,297,-259v0,-183,-220,-161,-411,-163r36,-181r384,-296r-504,0r44,-222r839,0r-41,207r-435,322v213,14,354,113,354,327"},"\u04e2":{"d":"463,-1462r35,-174r581,0r-35,174r-581,0xm684,0r166,-825r-2,0r-608,825r-248,0r262,-1307r248,0r-168,826r2,0r610,-826r248,0r-262,1307r-248,0"},"\u04e4":{"d":"557,-1690v79,0,133,51,133,129v0,87,-58,146,-143,146v-80,0,-131,-51,-131,-129v0,-87,55,-146,141,-146xm999,-1690v79,0,133,51,133,129v0,87,-58,146,-143,146v-80,0,-131,-51,-131,-129v0,-87,56,-146,141,-146xm684,0r166,-825r-2,0r-608,825r-248,0r262,-1307r248,0r-168,826r2,0r610,-826r248,0r-262,1307r-248,0"},"\u04e6":{"d":"555,-1690v79,0,133,51,133,129v0,87,-58,146,-143,146v-80,0,-131,-51,-131,-129v0,-87,55,-146,141,-146xm997,-1690v79,0,133,51,133,129v0,87,-58,146,-143,146v-80,0,-131,-51,-131,-129v0,-87,56,-146,141,-146xm715,-1329v277,0,428,159,424,440v-4,333,-107,599,-287,764v-93,85,-217,148,-387,148v-277,0,-428,-160,-424,-441v4,-332,107,-599,287,-764v93,-85,217,-147,387,-147xm299,-438v0,158,50,240,201,240v153,0,229,-107,285,-216v62,-120,96,-277,96,-454v0,-157,-51,-240,-201,-240v-153,0,-229,107,-285,216v-62,121,-96,277,-96,454"},"\u04e8":{"d":"715,-1329v277,0,428,159,424,440v-4,333,-107,599,-287,764v-93,85,-217,148,-387,148v-277,0,-428,-160,-424,-441v4,-332,107,-599,287,-764v93,-85,217,-147,387,-147xm297,-438v1,158,52,241,203,241v153,0,228,-104,284,-214v22,-44,42,-97,62,-160r-541,0v-7,40,-8,87,-8,133xm883,-868v-1,-157,-53,-242,-203,-242v-143,0,-215,92,-272,191v-22,39,-42,88,-62,145r531,0v4,-27,6,-59,6,-94"},"\u04ea":{"d":"555,-1690v79,0,133,51,133,129v0,87,-58,146,-143,146v-80,0,-131,-51,-131,-129v0,-87,55,-146,141,-146xm997,-1690v79,0,133,51,133,129v0,87,-58,146,-143,146v-80,0,-131,-51,-131,-129v0,-87,56,-146,141,-146xm715,-1329v277,0,428,159,424,440v-4,333,-107,599,-287,764v-93,85,-217,148,-387,148v-277,0,-428,-160,-424,-441v4,-332,107,-599,287,-764v93,-85,217,-147,387,-147xm297,-438v1,158,52,241,203,241v153,0,228,-104,284,-214v22,-44,42,-97,62,-160r-541,0v-7,40,-8,87,-8,133xm883,-868v-1,-157,-53,-242,-203,-242v-143,0,-215,92,-272,191v-22,39,-42,88,-62,145r531,0v4,-27,6,-59,6,-94"},"\u04ec":{"d":"484,-1690v79,0,133,51,133,129v0,87,-58,146,-143,146v-80,0,-131,-51,-131,-129v0,-87,55,-146,141,-146xm926,-1690v79,0,133,51,133,129v0,87,-58,146,-143,146v-80,0,-131,-51,-131,-129v0,-87,56,-146,141,-146xm54,-268v132,60,319,98,468,39v141,-56,223,-187,269,-342r-603,0r40,-203r595,0v14,-218,-53,-341,-270,-336v-125,3,-216,32,-313,72r0,-219v106,-45,233,-72,370,-72v323,0,491,165,484,489v-9,435,-181,740,-537,838v-177,49,-401,22,-552,-33"},"\u04ee":{"d":"468,-1462r35,-174r581,0r-35,174r-581,0xm92,-217v52,14,128,28,180,6v98,-42,146,-141,211,-233r-284,-863r284,0r123,428r43,181r344,-609r293,0r-631,1012v-84,128,-162,247,-309,299v-97,34,-215,18,-303,-14"},"\u04f0":{"d":"555,-1690v79,0,133,51,133,129v0,87,-58,146,-143,146v-80,0,-131,-51,-131,-129v0,-87,55,-146,141,-146xm997,-1690v79,0,133,51,133,129v0,87,-58,146,-143,146v-80,0,-131,-51,-131,-129v0,-87,56,-146,141,-146xm92,-217v52,14,128,28,180,6v98,-42,146,-141,211,-233r-284,-863r284,0r123,428r43,181r344,-609r293,0r-631,1012v-84,128,-162,247,-309,299v-97,34,-215,18,-303,-14"},"\u04f2":{"d":"935,-1671r-299,225r-217,0r226,-225r290,0xm1359,-1671r-329,225r-224,0r244,-225r309,0xm92,-217v52,14,128,28,180,6v98,-42,146,-141,211,-233r-284,-863r284,0r123,428r43,181r344,-609r293,0r-631,1012v-84,128,-162,247,-309,299v-97,34,-215,18,-303,-14"},"\u04f4":{"d":"544,-1690v79,0,133,51,133,129v0,87,-58,146,-143,146v-80,0,-131,-51,-131,-129v0,-87,55,-146,141,-146xm986,-1690v79,0,133,51,133,129v0,87,-58,146,-143,146v-80,0,-131,-51,-131,-129v0,-87,56,-146,141,-146xm424,-993v-37,155,-8,286,170,286r231,0r121,-600r248,0r-262,1307r-248,0r100,-504r-219,0v-271,3,-433,-124,-403,-404v3,-24,7,-50,12,-75r66,-324r247,0"},"\u04f6":{"d":"356,-1307r803,0r-43,209r-557,0r-177,883r247,0r-116,498r-230,0r57,-283r-246,0"},"\u04f8":{"d":"545,-1690v79,0,133,51,133,129v0,87,-58,146,-143,146v-80,0,-131,-51,-131,-129v0,-87,55,-146,141,-146xm987,-1690v79,0,133,51,133,129v0,87,-58,146,-143,146v-80,0,-131,-51,-131,-129v0,-87,56,-146,141,-146xm772,-498v0,323,-191,494,-528,498r-289,0r261,-1307r235,0r-100,500v254,-9,421,81,421,309xm518,-477v6,-118,-82,-140,-207,-133r-82,413v199,14,280,-102,289,-280xm732,0r261,-1307r235,0r-261,1307r-235,0"},"\u04fa":{"d":"418,358v-66,60,-200,70,-315,49r0,-183v64,14,152,25,188,-22v36,-47,51,-129,66,-202r-263,0r115,-575r-196,0r38,-195r197,0r108,-537r803,0r-43,209r-557,0r-66,328r304,0r-39,195r-304,0r-70,353r219,0v-49,202,-57,463,-185,580"},"\u04fc":{"d":"884,358v-66,60,-201,70,-316,49r0,-183v64,14,152,25,188,-22v36,-47,51,-129,66,-202r-107,0r-156,-481r-344,481r-309,0r510,-670r-223,-637r276,0r145,455r322,-455r301,0r-479,637r172,448r138,0v-49,202,-56,463,-184,580"},"\u04fe":{"d":"715,0r-156,-481r-344,481r-309,0r438,-575r-302,0r39,-195r300,0r-188,-537r276,0r145,455r322,-455r301,0r-404,537r314,0r-39,195r-314,0r222,575r-301,0"},"\u0500":{"d":"504,0v-292,3,-509,-121,-457,-426v44,-261,251,-380,564,-381r197,0r100,-500r244,0r-261,1307r-387,0xm304,-365v0,119,86,168,211,168r171,0r83,-413r-162,0v-183,1,-303,73,-303,245"},"\u0502":{"d":"261,20v-231,8,-293,-189,-249,-411v50,-254,197,-424,511,-416r100,-500r230,0r-203,1023v-8,56,4,105,59,103v75,-3,87,-66,100,-133r98,-494r222,0r-106,527v-36,180,-120,301,-336,301v-92,0,-166,-36,-199,-85v-54,51,-129,82,-227,85xm235,-258v-10,92,95,93,139,46v27,-27,44,-64,53,-114r56,-281v-193,-14,-229,175,-248,349"},"\u0504":{"d":"747,-1042v0,202,-123,304,-279,357v135,23,221,113,191,285v-15,79,-61,253,70,214v44,-13,57,-61,68,-115r101,-505r228,0r-101,513v-35,183,-121,305,-342,305v-204,0,-329,-95,-291,-308v15,-79,46,-191,-14,-242v-44,-37,-166,-47,-271,-44r37,-186v203,11,340,-45,344,-236v4,-162,-209,-140,-321,-98r0,-192v68,-22,152,-36,241,-35v202,2,339,86,339,287"},"\u0506":{"d":"621,-981v0,-212,-327,-142,-460,-93r0,-200v92,-32,208,-57,333,-55v220,3,384,83,384,303v0,188,-110,280,-253,330v132,35,211,144,174,321r-31,160r272,0r-116,498r-230,0r57,-283r-285,0r77,-387v27,-149,-44,-195,-197,-195r-225,0r38,-186r187,0v153,-4,275,-62,275,-213"},"\u0508":{"d":"-23,-221v93,9,119,-50,146,-132v94,-286,150,-645,223,-954r565,0r-202,1010v-11,53,-19,118,41,117v68,-1,73,-61,85,-121r101,-505r214,0r-101,513v-33,178,-101,305,-315,305v-194,0,-285,-113,-246,-307r160,-795r-136,0r-132,580v-49,183,-81,347,-184,456v-54,59,-176,72,-271,44"},"\u050a":{"d":"507,-569r-200,0r-114,569r-219,0r260,-1307r220,0r-105,525r200,0r105,-525r220,0r-202,1010v-23,86,2,131,74,111v36,-20,42,-65,52,-115r101,-505r214,0r-101,513v-33,179,-97,305,-315,305v-194,0,-284,-115,-245,-308"},"\u050c":{"d":"402,-842v-106,196,-169,645,150,645v192,0,253,-120,280,-286r-226,0r40,-203r464,0v-41,202,-68,432,-180,558v-89,100,-215,154,-398,151v-310,-4,-477,-173,-477,-487v0,-416,189,-700,501,-819v184,-70,445,-52,619,10r-48,228v-126,-51,-332,-96,-481,-33v-109,46,-187,130,-244,236"},"\u050e":{"d":"522,-1102r-342,0r43,-205r965,0r-43,205r-381,0r-161,805v-14,60,-8,119,53,117v69,-3,81,-59,93,-121r101,-505r236,0r-101,506v-35,187,-114,312,-341,312v-210,0,-323,-100,-281,-311"},"\u0510":{"d":"570,-180v159,0,281,-33,405,-70r0,211v-224,73,-597,100,-777,-27v-76,-54,-129,-132,-129,-252v0,-221,130,-338,315,-381v-77,-45,-145,-102,-145,-223v-1,-361,359,-447,721,-391v62,10,123,25,184,42r-40,199v-110,-32,-208,-61,-346,-61v-154,0,-266,63,-266,216v0,203,290,140,492,151r-37,188r-312,0v-171,2,-300,57,-300,226v0,128,98,171,235,172"},"\u0512":{"d":"878,358v-66,60,-200,70,-315,49r0,-183v64,14,152,25,188,-22v36,-47,51,-129,66,-202r-226,0r217,-1090r-170,0v-68,286,-134,530,-229,748v-62,142,-123,248,-231,315v-81,51,-171,45,-274,17r50,-209v131,7,176,-63,224,-159v130,-261,194,-579,279,-929r643,0r-218,1085r181,0v-49,202,-57,463,-185,580"},"\u048b":{"d":"727,-184v-76,107,-186,203,-365,207v-217,5,-301,-160,-256,-381r134,-658r243,0r-133,662v-21,97,-2,172,76,172v93,0,147,-73,196,-132v60,-71,111,-163,132,-268r86,-434r243,0r-117,590r-28,221r118,0r-210,461r-217,0r114,-256r-24,0xm710,-1266v94,-3,131,-68,148,-147r227,0v-39,193,-170,289,-393,289v-204,0,-329,-78,-291,-289r220,0v-19,79,5,150,89,147"},"\u048d":{"d":"480,18v-224,-2,-392,-52,-397,-266v0,-32,3,-65,10,-98r146,-726r-134,0r36,-182r135,0r27,-135r252,-66r-40,201r282,0r-36,182r-282,0r-85,427v33,-3,65,-5,96,-7v279,-12,538,26,538,285v0,209,-150,309,-325,358v-67,19,-142,27,-223,27xm326,-285v0,96,63,114,175,115v155,1,277,-42,277,-169v0,-172,-255,-124,-422,-120v-10,54,-30,115,-30,174"},"\u048f":{"d":"436,-293r158,-113r311,438r-158,114xm764,-1038v207,-3,302,139,301,352v-3,322,-129,545,-351,652v-114,55,-288,64,-427,36r-80,395r-244,0r189,-940r24,-159r33,-314r199,0r-9,185v76,-106,187,-205,365,-207xm326,-195v68,26,193,32,262,-3v153,-78,223,-252,223,-472v0,-94,-26,-164,-111,-164v-92,0,-147,72,-196,132v-59,72,-110,163,-131,268"},"\u0493":{"d":"27,-609r195,0r81,-407r791,0r-41,209r-545,0r-40,198r265,0r-38,190r-265,0r-84,419r-246,0r84,-419r-194,0"},"\u0495":{"d":"490,-617v307,-25,494,112,494,406v0,312,-153,496,-388,579v-81,28,-172,42,-272,42r42,-205v237,-23,372,-152,379,-401v4,-181,-113,-245,-302,-228v-24,2,-50,4,-77,7r-83,417r-244,0r203,-1016r788,0r-42,210r-544,0r-40,197v29,-3,58,-6,86,-8"},"\u0497":{"d":"331,-1016r61,342v10,47,14,78,74,70r83,-412r216,0r-82,412v85,7,93,-57,125,-115r166,-297r240,0r-272,424v-26,33,-45,61,-85,74v59,33,69,110,86,188r28,125r108,0r-107,461r-215,0r50,-256r-28,0r-59,-366v-8,-43,-17,-71,-72,-64r-85,430r-217,0r85,-430v-74,-8,-84,42,-110,90r-185,340r-256,0r280,-444v30,-42,55,-72,101,-93v-45,-39,-62,-90,-82,-174r-71,-305r223,0"},"\u0499":{"d":"384,405v-52,0,-112,-3,-155,-10r0,-154v96,8,210,10,206,-90v-3,-65,-32,-99,-76,-151r189,0v52,53,93,116,93,198v0,137,-107,210,-257,207xm780,-532v111,18,199,75,199,196v0,192,-135,279,-306,326v-183,50,-470,39,-668,-6r41,-195v188,54,559,98,658,-57v35,-55,10,-117,-40,-138v-105,-46,-299,-27,-453,-32r36,-174v212,-9,517,48,517,-152v0,-94,-113,-92,-221,-92v-116,0,-234,16,-332,41r2,-191v259,-40,681,-86,782,112v86,169,-57,331,-215,362"},"\u049b":{"d":"251,-1016r240,0r-80,402v85,7,123,-26,165,-72v90,-99,175,-223,260,-330r294,0r-245,289v-76,87,-140,162,-256,199v118,45,159,208,218,323r163,0r-107,461r-215,0r50,-256r-72,0r-111,-305v-35,-93,-66,-141,-180,-135r-87,440r-240,0"},"\u049d":{"d":"371,-213r45,-227r-41,0r-87,440r-240,0r203,-1016r240,0r-80,402r40,0r42,-213r143,0r-42,200v50,-29,72,-71,110,-131r162,-258r289,0r-203,289v-66,92,-138,166,-256,199v82,26,131,91,158,176r112,352r-268,0r-76,-305v-17,-60,-24,-98,-66,-123r-42,215r-143,0"},"\u049f":{"d":"332,-1413r240,0r-24,113r227,0r-35,182r-227,0r-102,504v85,7,123,-26,165,-72v90,-99,175,-223,260,-330r294,0r-245,289v-76,87,-140,162,-256,199v74,26,116,100,153,180r160,348r-276,0r-111,-305v-35,-93,-66,-141,-180,-135r-87,440r-240,0r225,-1118r-150,0r37,-182r149,0"},"\u04a1":{"d":"108,-1016r409,0r-80,402v85,7,123,-26,165,-72v90,-99,175,-223,260,-330r294,0r-245,289v-76,87,-140,162,-256,199v74,26,116,100,153,180r160,348r-276,0r-111,-305v-35,-93,-66,-141,-180,-135r-87,440r-240,0r165,-827r-169,0"},"\u04a3":{"d":"660,0r85,-428r-395,0r-85,428r-240,0r203,-1016r240,0r-76,381r395,0r76,-381r239,0r-162,811r108,0r-107,461r-215,0r50,-256r-116,0"},"\u04a5":{"d":"604,0r86,-428r-341,0r-86,428r-240,0r203,-1016r240,0r-76,381r341,0r76,-381r418,0r-38,190r-179,0r-165,826r-239,0"},"\u04a7":{"d":"823,-254v19,-110,13,-229,-115,-202v-13,3,-23,4,-30,5r-90,451r-212,0r165,-828r-191,0r-165,828r-212,0r203,-1016r615,0r-80,399r86,-7v252,-13,248,278,204,503v-58,302,-171,519,-508,527r32,-173v234,-19,260,-267,298,-487"},"\u04a9":{"d":"1027,-494v0,169,-86,288,-187,370v39,18,109,16,158,9r-38,190v-144,14,-263,-20,-340,-81v-49,13,-102,22,-160,24v-297,8,-434,-208,-379,-514v43,-242,172,-417,378,-500v109,-44,265,-55,392,-23r-49,206v-75,-20,-182,-20,-250,9v-148,63,-220,212,-226,415v-4,131,56,203,175,207v-46,-145,-10,-338,59,-426v52,-67,128,-119,242,-118v146,2,225,83,225,232xm699,-226v76,-56,122,-143,130,-268v5,-70,-61,-77,-93,-40v-53,61,-72,215,-37,308"},"\u04ab":{"d":"427,405v-52,0,-112,-3,-155,-10r0,-154v96,8,210,10,206,-90v-3,-65,-32,-99,-76,-151r189,0v52,53,93,116,93,198v0,137,-107,210,-257,207xm612,-195v103,0,196,-28,275,-59r0,209v-91,34,-198,62,-318,63v-281,2,-450,-122,-450,-391v0,-337,172,-547,439,-633v146,-47,367,-24,493,17r-45,229v-95,-48,-263,-89,-384,-42v-152,59,-233,201,-239,401v-4,139,88,206,229,206"},"\u04ad":{"d":"332,0r162,-811r-355,0r41,-205r956,0r-41,205r-353,0r-121,606r137,0r-107,461r-215,0r50,-256r-154,0"},"\u04af":{"d":"581,-2r-80,403r-250,0r80,-401r-212,-1016r261,0r121,752r430,-752r272,0"},"\u04b1":{"d":"106,0r225,0r-212,-1016r261,0r121,752r430,-752r272,0r-623,1016r232,0r-38,190r-231,0r-42,211r-250,0r42,-211r-225,0"},"\u04b3":{"d":"700,0r-163,-342r-301,342r-306,0r484,-512r-260,-504r286,0r162,334r291,-334r285,0r-451,502r160,309r162,0r-107,461r-215,0r50,-256r-77,0"},"\u04b5":{"d":"727,-184v-76,107,-186,203,-365,207v-217,5,-301,-159,-256,-381r95,-468r-162,0r38,-190r566,0r-38,190r-160,0r-95,472v-18,96,-2,172,76,172v84,0,148,-74,197,-132v56,-69,112,-169,131,-268r86,-434r243,0r-120,612r-25,199r111,0r-107,461r-215,0r50,-256r-58,0"},"\u04b7":{"d":"371,-768v-28,103,-17,238,100,229v160,-12,251,-131,319,-250v38,-67,56,-143,72,-227r240,0r-162,811r116,0r-107,461r-215,0r50,-256r-125,0r74,-375r37,-123v-76,92,-188,155,-344,156v-205,2,-309,-95,-309,-289v0,-129,42,-266,63,-385r240,0"},"\u04b9":{"d":"371,-768v-28,106,-17,240,108,229r47,-234r159,0r-39,195v96,-53,150,-146,180,-279r36,-159r240,0r-203,1016r-240,0r74,-375r37,-123v-45,54,-100,94,-164,121r-33,168r-159,0r27,-133v-213,6,-324,-90,-324,-289v0,-129,42,-266,63,-385r240,0"},"\u04bb":{"d":"741,-248v26,-105,19,-238,-100,-229v-159,12,-250,133,-317,253v-37,66,-58,141,-74,224r-240,0r203,-1016r240,0r-74,375r-37,123v76,-92,188,-153,344,-156v232,-4,332,132,304,365v-14,106,-39,207,-58,309r-240,0"},"\u04bd":{"d":"1115,-764v0,309,-294,348,-628,340v-25,154,52,252,204,252v100,0,199,-21,279,-45r0,190v-96,28,-203,50,-324,50v-276,-2,-427,-156,-400,-450v-135,-16,-239,-75,-241,-223v-1,-81,27,-142,60,-192r199,0v-31,48,-84,135,-41,202v10,15,30,22,59,25v58,-181,170,-324,340,-391v54,-21,112,-32,175,-32v191,0,318,87,318,274xm876,-751v0,-68,-30,-109,-103,-105v-151,8,-213,132,-252,258v173,2,355,1,355,-153"},"\u04bf":{"d":"1115,-764v0,309,-294,348,-628,340v-25,154,52,252,204,252v100,0,199,-21,279,-45r0,190v-77,22,-159,40,-249,47r-55,236r-215,0r49,-252v-176,-45,-280,-196,-254,-431v-135,-16,-239,-75,-241,-223v-1,-81,27,-142,60,-192r199,0v-31,48,-84,135,-41,202v10,15,30,22,59,25v58,-181,170,-324,340,-391v54,-21,112,-32,175,-32v191,0,318,87,318,274xm876,-751v0,-68,-30,-109,-103,-105v-151,8,-213,132,-252,258v173,2,355,1,355,-153"},"\u04c2":{"d":"706,-1266v95,-3,130,-68,148,-147r227,0v-38,191,-167,286,-393,289v-206,2,-329,-79,-291,-289r220,0v-19,80,5,149,89,147xm338,-1016r58,342v10,47,16,78,77,70r83,-412r216,0r-82,412v85,7,93,-57,125,-115r166,-297r240,0r-232,365v-40,55,-64,106,-125,133v58,33,68,111,86,188r76,330r-240,0r-60,-366v-8,-43,-16,-71,-71,-64r-85,430r-217,0r85,-430v-74,-8,-84,42,-110,90r-185,340r-256,0r279,-444v29,-42,58,-71,102,-93v-47,-37,-64,-102,-82,-174r-71,-305r223,0"},"\u04c4":{"d":"696,-588v166,48,274,163,274,377v0,312,-153,496,-388,579v-81,28,-172,42,-272,42r42,-205v237,-23,372,-152,379,-401v4,-180,-113,-245,-301,-228v-24,2,-48,4,-74,7r-82,417r-240,0r203,-1016r240,0r-80,402v85,7,123,-26,165,-72v90,-99,175,-223,260,-330r294,0r-245,289v-47,57,-110,105,-175,139"},"\u04c6":{"d":"814,-801v-56,-21,-143,-23,-193,5v-138,75,-155,303,-210,462v-73,211,-197,397,-497,326r43,-205v140,9,179,-64,218,-171v36,-97,69,-270,116,-370v80,-173,222,-281,479,-280v113,0,227,18,322,39r-158,790r115,0r-210,461r-217,0r114,-256r-82,0"},"\u04c8":{"d":"264,180v110,25,260,24,320,-43v45,-50,71,-117,88,-203r71,-362r-395,0r-84,428r-239,0r202,-1016r240,0r-76,383r395,0r76,-383r240,0r-194,971v-51,278,-170,456,-502,456v-61,0,-131,-10,-183,-20"},"\u04ca":{"d":"739,0r-79,0r85,-428r-395,0r-85,428r-240,0r203,-1016r240,0r-76,381r395,0r76,-381r239,0r-162,811r120,0r-212,461r-223,0"},"\u04cc":{"d":"371,-768v-28,103,-17,239,100,229v159,-13,250,-133,317,-253v37,-66,58,-141,74,-224r240,0r-203,1016r-267,0r-52,256r-225,0r77,-448r265,0r36,-183r37,-123v-76,92,-188,155,-344,156v-205,2,-309,-95,-309,-289v0,-129,42,-266,63,-385r240,0"},"\u04ce":{"d":"764,0r82,-535r45,-247r-86,161r-203,359r-145,0r-47,-375r-15,-145v-17,82,-34,157,-50,224v-39,163,-77,308,-149,428v-61,101,-138,159,-296,122r37,-170v89,9,108,-42,136,-110v81,-198,137,-491,195,-728r271,0r36,291r15,164r80,-156r166,-299r282,0r-110,811r118,0r-210,461r-217,0r114,-256r-49,0"},"\u04cf":{"d":"268,-1105r41,-202r828,0r-41,202r-289,0r-181,903r287,0r-39,202r-827,0r39,-202r290,0r182,-903r-290,0"},"\u04d1":{"d":"636,-1372v26,116,213,61,214,-41r182,0v-32,164,-143,276,-334,276v-166,0,-263,-97,-241,-276r180,0v-3,15,-4,28,-1,41xm727,-184v-76,107,-186,207,-365,207v-206,0,-302,-139,-301,-353v3,-322,129,-545,351,-652v135,-65,358,-64,501,-17r174,-37r-124,632r-27,219r-18,185r-199,0xm342,-549v-32,123,-70,367,84,367v84,0,148,-74,197,-132v56,-69,112,-169,131,-268r47,-239v-74,-28,-190,-31,-261,3v-104,50,-167,150,-198,269"},"\u04d3":{"d":"516,-1430v78,0,131,53,131,130v0,87,-58,145,-143,145v-80,0,-131,-52,-131,-129v0,-87,57,-146,143,-146xm934,-1430v78,0,131,53,131,130v0,86,-57,145,-143,145v-80,0,-131,-52,-131,-129v0,-87,57,-146,143,-146xm727,-184v-76,107,-186,207,-365,207v-206,0,-302,-139,-301,-353v3,-322,129,-545,351,-652v135,-65,358,-64,501,-17r174,-37r-124,632r-27,219r-18,185r-199,0xm342,-549v-32,123,-70,367,84,367v84,0,148,-74,197,-132v56,-69,112,-169,131,-268r47,-239v-74,-28,-190,-31,-261,3v-104,50,-167,150,-198,269"},"\u04d5":{"d":"154,-975v74,-33,174,-62,274,-63v112,-1,195,39,236,104v58,-56,131,-105,241,-104v165,0,248,87,248,245v0,181,-121,271,-269,315v-71,21,-153,25,-243,23v-31,140,-10,300,131,299v84,-1,140,-21,211,-49r0,176v-78,28,-170,51,-274,52v-135,1,-208,-57,-238,-160v-51,85,-128,160,-258,160v-159,0,-249,-81,-246,-244v5,-255,147,-385,412,-387r104,0v7,-48,23,-91,23,-144v0,-72,-36,-112,-117,-110v-83,3,-167,36,-235,69r0,-182xm360,-455v-127,2,-174,88,-182,211v-6,82,68,109,129,70v84,-53,126,-163,146,-281r-93,0xm674,-608v152,5,268,-25,270,-166v0,-59,-25,-88,-76,-88v-40,0,-77,22,-111,66v-34,44,-62,107,-83,188"},"\u04d7":{"d":"636,-1372v26,116,213,61,214,-41r182,0v-32,164,-143,276,-334,276v-166,0,-263,-97,-241,-276r180,0v-3,15,-4,28,-1,41xm680,-1038v206,0,364,77,364,274v0,199,-134,275,-310,316v-103,24,-262,25,-402,24v-26,162,61,256,223,252v111,-3,233,-18,326,-45r0,190v-107,28,-241,51,-373,50v-261,-2,-420,-119,-420,-379v0,-304,140,-522,349,-628v73,-36,154,-54,243,-54xm793,-687v43,-96,-35,-174,-138,-169v-168,8,-241,124,-284,258v141,1,293,2,375,-44v24,-13,39,-28,47,-45"},"\u04d9":{"d":"434,23v-206,0,-364,-77,-364,-274v0,-328,356,-343,712,-340v26,-162,-61,-256,-223,-252v-111,3,-233,18,-326,45r0,-190v109,-28,240,-51,373,-50v261,2,420,119,420,379v0,305,-141,521,-350,627v-73,36,-153,55,-242,55xm321,-328v-42,96,33,174,138,169v168,-9,241,-124,284,-258v-141,-1,-293,-3,-375,43v-24,13,-39,29,-47,46"},"\u04db":{"d":"434,23v-206,0,-364,-77,-364,-274v0,-328,356,-343,712,-340v26,-162,-61,-256,-223,-252v-111,3,-233,18,-326,45r0,-190v109,-28,240,-51,373,-50v261,2,420,119,420,379v0,305,-141,521,-350,627v-73,36,-153,55,-242,55xm321,-328v-42,96,33,174,138,169v168,-9,241,-124,284,-258v-141,-1,-293,-3,-375,43v-24,13,-39,29,-47,46xm516,-1430v78,0,131,53,131,130v0,87,-58,145,-143,145v-80,0,-131,-52,-131,-129v0,-87,57,-146,143,-146xm934,-1430v78,0,131,53,131,130v0,86,-57,145,-143,145v-80,0,-131,-52,-131,-129v0,-87,57,-146,143,-146"},"\u04dd":{"d":"509,-1430v78,0,131,53,131,130v0,87,-58,145,-143,145v-80,0,-131,-52,-131,-129v0,-87,57,-146,143,-146xm927,-1430v78,0,131,53,131,130v0,86,-57,145,-143,145v-80,0,-131,-52,-131,-129v0,-87,57,-146,143,-146xm338,-1016r58,342v10,47,16,78,77,70r83,-412r216,0r-82,412v85,7,93,-57,125,-115r166,-297r240,0r-232,365v-40,55,-64,106,-125,133v58,33,68,111,86,188r76,330r-240,0r-60,-366v-8,-43,-16,-71,-71,-64r-85,430r-217,0r85,-430v-74,-8,-84,42,-110,90r-185,340r-256,0r279,-444v29,-42,58,-71,102,-93v-47,-37,-64,-102,-82,-174r-71,-305r223,0"},"\u04df":{"d":"465,-1430v78,0,131,53,131,130v0,87,-58,145,-143,145v-80,0,-131,-52,-131,-129v0,-87,57,-146,143,-146xm883,-1430v78,0,131,53,131,130v0,86,-57,145,-143,145v-80,0,-131,-52,-131,-129v0,-87,57,-146,143,-146xm780,-532v111,18,199,75,199,196v0,192,-135,279,-306,326v-183,50,-470,39,-668,-6r41,-195v188,54,559,98,658,-57v35,-55,10,-117,-40,-138v-105,-46,-299,-27,-453,-32r36,-174v212,-9,517,48,517,-152v0,-94,-113,-92,-221,-92v-116,0,-234,16,-332,41r2,-191v259,-40,681,-86,782,112v86,169,-57,331,-215,362"},"\u04e1":{"d":"583,-485v206,22,348,113,348,330v0,255,-140,398,-339,461v-195,62,-460,31,-638,-24r40,-205v119,34,222,56,367,56v185,0,305,-92,308,-275v3,-183,-198,-177,-390,-175r36,-181r369,-309r-478,0r42,-209r801,0r-39,194"},"\u04e3":{"d":"424,-1204r35,-174r557,0r-35,174r-557,0xm727,-184v-76,107,-186,203,-365,207v-217,5,-301,-160,-256,-381r134,-658r243,0r-133,662v-18,96,-2,172,76,172v84,0,148,-74,197,-132v56,-69,112,-169,131,-268r86,-434r243,0r-120,612r-27,219r-18,185r-199,0"},"\u04e5":{"d":"516,-1430v78,0,131,53,131,130v0,87,-58,145,-143,145v-80,0,-131,-52,-131,-129v0,-87,57,-146,143,-146xm934,-1430v78,0,131,53,131,130v0,86,-57,145,-143,145v-80,0,-131,-52,-131,-129v0,-87,57,-146,143,-146xm727,-184v-76,107,-186,203,-365,207v-217,5,-301,-160,-256,-381r134,-658r243,0r-133,662v-18,96,-2,172,76,172v84,0,148,-74,197,-132v56,-69,112,-169,131,-268r86,-434r243,0r-120,612r-27,219r-18,185r-199,0"},"\u04e7":{"d":"516,-1430v78,0,131,53,131,130v0,87,-58,145,-143,145v-80,0,-131,-52,-131,-129v0,-87,57,-146,143,-146xm934,-1430v78,0,131,53,131,130v0,86,-57,145,-143,145v-80,0,-131,-52,-131,-129v0,-87,57,-146,143,-146xm659,-1038v260,0,412,124,412,385v0,271,-114,460,-278,577v-83,59,-191,99,-326,99v-260,0,-412,-124,-412,-385v0,-271,114,-462,279,-578v83,-59,189,-98,325,-98xm320,-480v-34,160,20,299,180,292v163,-7,234,-124,281,-248v21,-56,33,-124,34,-193v1,-128,-64,-198,-188,-198v-199,0,-270,173,-307,347"},"\u04e9":{"d":"659,-1038v260,0,412,124,412,385v0,271,-114,460,-278,577v-83,59,-191,99,-326,99v-260,0,-412,-124,-412,-385v0,-271,114,-462,279,-578v83,-59,189,-98,325,-98xm311,-419v-8,147,52,234,189,231v157,-3,226,-115,275,-231r-464,0xm815,-609v6,-141,-56,-218,-188,-218v-153,0,-220,109,-271,218r459,0"},"\u04eb":{"d":"659,-1038v260,0,412,124,412,385v0,271,-114,460,-278,577v-83,59,-191,99,-326,99v-260,0,-412,-124,-412,-385v0,-271,114,-462,279,-578v83,-59,189,-98,325,-98xm311,-419v-8,147,52,234,189,231v157,-3,226,-115,275,-231r-464,0xm815,-609v6,-141,-56,-218,-188,-218v-153,0,-220,109,-271,218r459,0xm516,-1430v78,0,131,53,131,130v0,87,-58,145,-143,145v-80,0,-131,-52,-131,-129v0,-87,57,-146,143,-146xm934,-1430v78,0,131,53,131,130v0,86,-57,145,-143,145v-80,0,-131,-52,-131,-129v0,-87,57,-146,143,-146"},"\u04ed":{"d":"479,-1430v78,0,131,53,131,130v0,87,-58,145,-143,145v-80,0,-131,-52,-131,-129v0,-87,57,-146,143,-146xm897,-1430v78,0,131,53,131,130v0,86,-57,145,-143,145v-80,0,-131,-52,-131,-129v0,-87,57,-146,143,-146xm88,-244v138,63,400,88,522,-8v54,-43,92,-102,117,-172r-536,0r35,-174r532,0v-2,-166,-74,-230,-246,-231v-118,0,-201,19,-286,55r0,-205v91,-34,208,-59,327,-59v295,-2,470,129,463,420v-9,406,-228,636,-647,641v-134,2,-231,-16,-326,-47"},"\u04ef":{"d":"368,-1204r35,-174r557,0r-35,174r-557,0xm-115,205v98,17,211,14,273,-35v61,-48,110,-101,166,-170r-201,-1016r254,0r143,785r106,-164v111,-180,199,-356,218,-621r260,0v-42,369,-201,606,-373,856v-129,187,-253,344,-416,474v-103,82,-255,124,-430,98r0,-207"},"\u04f1":{"d":"516,-1430v78,0,131,53,131,130v0,87,-58,145,-143,145v-80,0,-131,-52,-131,-129v0,-87,57,-146,143,-146xm934,-1430v78,0,131,53,131,130v0,86,-57,145,-143,145v-80,0,-131,-52,-131,-129v0,-87,57,-146,143,-146xm-115,205v98,17,211,14,273,-35v61,-48,110,-101,166,-170r-201,-1016r254,0r143,785r106,-164v111,-180,199,-356,218,-621r260,0v-42,369,-201,606,-373,856v-129,187,-253,344,-416,474v-103,82,-255,124,-430,98r0,-207"},"\u04f3":{"d":"534,-1151r-217,0r211,-262r278,0xm933,-1151r-221,0r246,-262r303,0xm-115,205v98,17,211,14,273,-35v61,-48,110,-101,166,-170r-201,-1016r254,0r143,785r106,-164v111,-180,199,-356,218,-621r260,0v-42,369,-201,606,-373,856v-129,187,-253,344,-416,474v-103,82,-255,124,-430,98r0,-207"},"\u04f5":{"d":"501,-1430v78,0,131,53,131,130v0,87,-58,145,-143,145v-80,0,-131,-52,-131,-129v0,-87,57,-146,143,-146xm919,-1430v78,0,131,53,131,130v0,86,-57,145,-143,145v-80,0,-131,-52,-131,-129v0,-87,57,-146,143,-146xm371,-768v-28,103,-17,238,100,229v160,-12,251,-134,319,-253v37,-66,55,-142,72,-224r240,0r-203,1016r-240,0r74,-375r37,-123v-76,92,-189,153,-344,156v-232,4,-332,-133,-304,-366v14,-106,39,-206,58,-308r240,0"},"\u04f7":{"d":"303,-1016r791,0r-41,209r-545,0r-121,602r231,0r-107,461r-215,0r50,-256r-246,0"},"\u04f9":{"d":"510,-1430v78,0,131,53,131,130v0,87,-58,145,-143,145v-80,0,-131,-52,-131,-129v0,-87,57,-146,143,-146xm928,-1430v78,0,131,53,131,130v0,86,-57,145,-143,145v-80,0,-131,-52,-131,-129v0,-87,57,-146,143,-146xm315,-627v33,-7,67,-8,109,-8v192,2,319,79,319,264v0,255,-164,382,-434,387v-204,4,-330,-94,-289,-301r144,-731r229,0xm258,-350v-20,85,-34,200,72,194v116,-6,161,-90,166,-204v5,-107,-114,-114,-215,-95xm731,0r203,-1016r229,0r-202,1016r-230,0"},"\u04fb":{"d":"418,358v-67,60,-201,70,-317,49r0,-183v64,15,153,25,189,-22v36,-46,51,-129,66,-202r-256,0r84,-419r-194,0r37,-190r195,0r81,-407r791,0r-41,209r-545,0r-40,198r265,0r-38,190r-265,0r-41,203r212,0v-48,201,-55,459,-183,574"},"\u04fd":{"d":"854,358v-66,60,-200,70,-315,49r0,-183v64,14,152,25,188,-22v36,-47,51,-129,66,-202r-93,0r-163,-342r-301,342r-306,0r484,-512r-260,-504r286,0r162,334r291,-334r285,0r-451,502r151,292r161,0v-49,202,-57,463,-185,580"},"\u04ff":{"d":"700,0r-163,-342r-301,342r-306,0r396,-419r-254,0r38,-190r254,0r-210,-407r286,0r162,334r291,-334r285,0r-366,407r244,0r-38,190r-242,0r217,419r-293,0"},"\u0501":{"d":"362,23v-206,0,-302,-139,-301,-353v3,-322,129,-546,351,-652v115,-55,288,-63,428,-36r80,-395r243,0r-200,1009r-27,219r-18,185r-199,0r8,-184v-76,107,-186,207,-365,207xm801,-821v-68,-26,-192,-32,-261,3v-153,78,-225,252,-225,472v0,94,26,164,111,164v84,0,148,-74,197,-132v56,-69,112,-169,131,-268"},"\u0503":{"d":"44,-529v58,-288,182,-534,526,-501r77,-383r230,0r-219,1094v-26,100,4,160,85,132v45,-15,56,-70,67,-127r70,-348r223,0v-39,168,-55,361,-116,508v-46,111,-140,174,-298,174v-96,0,-156,-34,-198,-87v-62,52,-117,86,-220,87v-264,2,-277,-300,-227,-549xm530,-830v-130,-18,-175,83,-209,185v-31,92,-57,292,-57,376v0,94,82,112,124,57v22,-28,32,-66,41,-114"},"\u0505":{"d":"682,-791v0,156,-108,223,-232,259v137,14,198,113,175,260v-11,70,-1,111,56,111v64,0,79,-42,93,-112r75,-379r220,0v-38,169,-52,361,-111,510v-44,111,-144,165,-304,165v-204,0,-310,-105,-269,-318v28,-148,-118,-144,-265,-143r32,-174v143,2,279,-7,279,-147v0,-134,-209,-100,-305,-69r0,-176v70,-18,161,-34,248,-33v177,3,308,68,308,246"},"\u0507":{"d":"166,-1001v244,-50,657,-87,716,136v48,181,-69,293,-231,331v118,26,186,103,155,256r-15,73r253,0r-107,461r-215,0r50,-256r-276,0r56,-274v53,-199,-186,-160,-373,-164r32,-174r150,0v146,1,302,-23,271,-178v-11,-58,-86,-65,-166,-66v-120,0,-204,16,-300,40r0,-185"},"\u0509":{"d":"584,-832v-114,-18,-137,68,-165,177v-52,202,-97,431,-202,563v-63,79,-183,121,-303,80r45,-194v85,3,118,-24,151,-86v69,-133,99,-355,162,-520v50,-130,143,-213,327,-211v78,0,164,18,223,39r-136,687v-21,85,-3,131,70,111v37,-20,44,-64,55,-115r70,-351r205,0r-70,353v-35,174,-98,311,-305,311v-188,0,-276,-117,-237,-307"},"\u050b":{"d":"486,-428r-194,0r-86,428r-210,0r202,-1016r211,0r-76,381r194,0r76,-381r210,0r-143,719v-23,86,-1,131,72,111v37,-20,43,-64,54,-115r70,-351r204,0r-68,349v-32,180,-86,315,-304,315v-194,0,-281,-119,-239,-309"},"\u050d":{"d":"371,-403v0,129,66,205,196,205v131,0,192,-66,210,-178r-212,0r40,-203r451,0v-29,133,-51,295,-108,393v-77,133,-206,201,-409,201v-315,0,-474,-218,-414,-541v45,-239,191,-400,402,-476v149,-53,373,-40,516,1r-47,221v-112,-41,-305,-66,-419,-8v-129,65,-206,199,-206,385"},"\u050f":{"d":"584,-297v-22,76,15,139,90,111v42,-16,53,-62,64,-115r70,-351r215,0r-69,349v-34,184,-106,315,-327,315v-195,0,-300,-110,-260,-309r103,-514r-341,0r41,-205r946,0r-41,205r-389,0"},"\u0511":{"d":"344,-541v-148,-6,-181,-204,-106,-322v129,-201,551,-196,845,-143r-39,191v-147,-37,-409,-72,-542,-2v-35,18,-53,47,-53,92v0,163,271,105,446,116r-34,174v-169,4,-375,-17,-483,45v-39,23,-61,52,-61,103v0,113,122,125,246,125v132,0,249,-16,367,-43r0,189v-318,54,-879,110,-879,-242v0,-174,133,-254,293,-283"},"\u0513":{"d":"874,358v-66,60,-201,70,-316,49r0,-183v64,14,152,25,188,-22v36,-47,51,-129,66,-202r-218,0r161,-806v-53,-15,-122,-18,-163,10v-121,83,-131,311,-184,463v-74,210,-200,395,-499,325r43,-205v141,9,182,-63,220,-171v57,-163,88,-404,202,-518v82,-81,191,-132,357,-132v102,0,217,19,301,38r-156,774r182,0v-49,202,-56,463,-184,580"},"\u0483":{"d":"540,-1172v-15,55,-56,97,-127,97v-73,0,-112,-45,-109,-117v3,-80,64,-135,147,-135r405,0v15,-55,56,-97,127,-97v73,0,114,44,109,116v-6,83,-60,136,-147,136r-405,0"},"\u0484":{"d":"904,-1065v16,-78,-10,-139,-90,-133v-120,8,-189,70,-294,98v-70,18,-149,35,-243,34r0,-154v202,3,312,-89,469,-125v171,-40,336,26,331,203v0,28,-2,52,-8,77r-165,0"},"\u0485":{"d":"730,-1155v-53,27,-30,98,40,91r-14,73v-116,-7,-198,-50,-198,-165v0,-106,62,-164,167,-173v92,-7,123,95,63,141v-17,14,-39,23,-58,33"},"\u0486":{"d":"698,-1329v81,1,133,51,118,139v-22,132,-118,194,-273,199r14,-73v47,-5,94,-13,94,-61v-10,-47,-73,-41,-73,-102v0,-68,54,-102,120,-102"},"\u0482":{"d":"564,-453r232,164r-122,170r-231,-164r-181,255r-180,-125r184,-255r-228,-162r120,-170r229,162r221,-310r-228,-162r120,-170r229,162r155,-216r178,123r-156,218r232,165r-121,170r-231,-165"},"\u0488":{"d":"371,72v1,-128,47,-206,175,-206v124,1,178,78,177,208r-108,-2v-4,-63,-14,-102,-69,-102v-58,0,-61,45,-68,102r-107,0xm371,-905v1,-129,47,-206,175,-206v124,1,178,78,177,208r-108,-2v-4,-63,-14,-102,-69,-102v-58,0,-61,45,-68,102r-107,0xm-8,-417v1,-130,47,-206,176,-206v117,0,175,69,175,207r-107,-1v-4,-62,-14,-104,-68,-104v-60,0,-63,46,-70,104r-106,0xm765,-417v1,-128,45,-206,173,-206v118,0,177,69,177,207r-106,-1v-4,-63,-15,-104,-71,-104v-58,0,-60,47,-67,104r-106,0xm78,-680v1,-129,46,-206,175,-206v117,0,175,69,175,208r-106,-2v-4,-63,-14,-103,-69,-103v-57,0,-61,47,-68,103r-107,0xm669,-680v1,-128,48,-206,176,-206v117,0,176,69,176,208r-108,-2v-4,-62,-14,-103,-68,-103v-58,0,-62,46,-69,103r-107,0xm78,-147v1,-127,47,-206,175,-205v117,0,175,69,175,207r-106,-2v-4,-61,-15,-102,-69,-102v-57,0,-61,47,-68,102r-107,0xm669,-147v1,-126,49,-206,176,-205v117,0,176,69,176,207r-108,-2v-4,-60,-15,-102,-68,-102v-58,0,-62,46,-69,102r-107,0"},"\u0489":{"d":"468,-911r114,-197r97,0r-74,189r0,124r-138,0xm657,-122r-113,196r-99,0r76,-189r0,-123r137,0xm401,-193r-217,57r-68,-70r189,-81r85,-86r96,98xm724,-838r217,-59r67,71r-188,82r-85,85r-96,-98xm268,-706r-57,-218r71,-68r81,188r85,86r-97,97xm856,-326r58,218r-71,67r-82,-188r-84,-86r97,-96xm197,-421r-196,-114r0,-97r188,73r124,0r0,138r-116,0xm928,-611r196,114r0,97r-189,-75r-123,0r0,-137"},"\u0460":{"d":"612,-1107v-164,-15,-204,103,-246,235v-49,153,-100,396,-112,573v-4,60,2,98,50,102v76,-9,92,-72,109,-161r46,-233r232,0r-46,233v-11,58,-13,99,-7,124v11,45,76,49,102,13v71,-97,92,-290,123,-434v29,-132,51,-234,41,-357v-7,-82,-67,-105,-158,-95r44,-219v265,-23,377,136,360,400v-18,273,-86,604,-196,786v-58,96,-136,156,-277,156v-102,0,-161,-45,-184,-126v-54,81,-115,126,-234,126v-208,0,-258,-171,-237,-393v35,-370,110,-784,389,-912v67,-31,154,-47,244,-37"},"\u0464":{"d":"773,23v-247,-3,-363,-143,-363,-398v0,-59,6,-125,19,-196r-126,0r-114,571r-221,0r261,-1307r221,0r-106,533r126,0v65,-256,170,-448,392,-528v108,-39,267,-33,367,-2r-41,202v-78,-22,-194,-33,-270,-2v-126,52,-173,180,-212,330r356,0r-41,203r-359,0v-9,57,-18,113,-18,172v1,141,50,208,189,209v65,0,124,-8,177,-22r-42,210v-54,12,-122,26,-195,25"},"\u0466":{"d":"-98,0r657,-1307r321,0r140,1307r-248,0r-45,-535r-49,0r-107,535r-221,0r108,-535r-51,0r-262,535r-243,0xm681,-1095r-178,362r208,0"},"\u0468":{"d":"250,0r218,-571r-146,0r-114,571r-214,0r260,-1307r215,0r-106,533r180,0r230,-533r258,0r10,1307r-190,0r18,-571r-30,0r-110,571r-172,0r114,-571r-30,0r-198,571r-193,0xm861,-1113r-140,339r143,0"},"\u046a":{"d":"1248,-1307r0,8r-380,554r163,745r-240,0r-94,-557r-109,557r-221,0r110,-558r-320,558r-263,0r471,-745r-173,-554r2,-8r1054,0xm473,-1117r124,408r276,-408r-400,0"},"\u046c":{"d":"1259,-1307r0,8r-268,569r45,730r-185,0r-14,-533r-103,533r-182,0r105,-534r-218,534r-194,0r244,-571r-172,0r-114,571r-214,0r260,-1307r215,0r-106,533r214,0r-19,-525r2,-8r704,0xm736,-1122r22,463r224,-463r-246,0"},"\u046e":{"d":"807,-1001v0,-188,-297,-132,-444,-100r-103,26r0,-197v89,-26,189,-46,295,-53r-166,-208r204,0r98,129v76,-71,145,-171,301,-142v16,3,30,6,43,9r-25,126v-105,-29,-146,53,-203,96v154,30,262,108,262,271v0,197,-104,314,-258,364v109,31,188,103,188,240v0,361,-311,423,-624,476v-61,11,-115,23,-153,48v-14,10,-21,24,-21,41v0,55,63,57,135,57v162,0,348,-30,491,7r0,205v-178,-41,-392,-16,-597,-19v-159,-2,-274,-68,-274,-229v0,-302,344,-280,586,-350v105,-30,191,-89,191,-224v0,-126,-102,-150,-237,-150r-298,0r39,-188r281,0v173,-1,289,-77,289,-235"},"\u0470":{"d":"422,-375v-237,-25,-377,-175,-322,-448r98,-484r233,0r-97,484v-31,144,20,229,127,252r147,-736r229,0r-147,736v130,-27,198,-119,225,-252r98,-484r233,0r-97,484v-53,262,-213,422,-498,448r-75,375r-229,0"},"\u0476":{"d":"211,-1671r318,0r225,225r-244,0xm691,-1671r318,0r207,225r-226,0xm1237,-1094v-82,-10,-105,29,-137,95r-488,999r-325,0r-127,-1307r266,0r72,1045r381,-834v56,-155,175,-259,403,-223"},"\u0478":{"d":"249,-194v9,31,55,26,71,0v71,-115,88,-276,123,-453r47,-237v14,-89,36,-158,16,-226v-9,-33,-60,-27,-77,0v-67,106,-88,313,-122,463v-22,95,-35,174,-45,235v-14,87,-32,153,-13,218xm251,23v-190,0,-214,-163,-197,-373v13,-167,74,-451,113,-606v37,-144,83,-262,177,-332v70,-52,229,-57,293,0v72,64,84,183,66,332v-33,276,-100,626,-209,820v-53,95,-116,159,-243,159xm415,218v50,2,107,16,147,-4v81,-43,107,-150,146,-243r51,-987r184,0r-44,424r-38,275r195,-699r184,0r-337,974v-51,142,-92,258,-165,354v-65,85,-180,117,-323,95r0,-189"},"\u047a":{"d":"606,-1382v59,-39,147,-40,205,0v29,20,51,44,65,75v172,52,266,193,263,418v-5,364,-125,641,-337,805v-47,35,-99,61,-157,80v-34,92,-185,156,-283,84v-29,-21,-50,-48,-63,-80v-168,-53,-261,-195,-258,-418v5,-363,125,-639,337,-802v46,-36,99,-62,156,-81v17,-34,41,-61,72,-81xm366,-235v60,-54,194,-46,242,13v191,-104,273,-358,273,-646v0,-97,-22,-164,-67,-201v-31,24,-70,41,-121,41v-55,0,-98,-24,-127,-53v-187,106,-267,357,-267,643v0,95,17,161,67,203"},"\u047c":{"d":"438,-1670v34,-173,120,-283,321,-280v165,2,232,103,383,125v35,5,75,10,121,10r-32,144v-161,1,-264,-43,-365,-97v-35,-19,-70,-35,-119,-35v-87,0,-119,46,-137,133r-172,0xm896,-836v23,-139,32,-291,-130,-272v-8,0,-15,0,-20,1r44,-221v254,-16,366,118,362,364v-3,215,-59,442,-110,606v-45,147,-108,264,-216,332v-111,69,-331,60,-347,-84v-54,81,-115,123,-234,126v-313,9,-239,-406,-188,-655v58,-284,137,-533,353,-645v68,-35,150,-49,246,-44r-44,221v-172,-18,-212,96,-249,235v-43,162,-109,411,-109,592v0,50,8,83,50,83v79,0,90,-82,111,-170r232,0v-15,71,-34,170,43,170v54,0,71,-47,90,-102v48,-140,89,-370,116,-537xm803,-1713v68,0,118,43,115,114v-6,149,-122,202,-278,208r15,-73v50,0,88,-14,93,-50v-10,-47,-79,-41,-76,-101v3,-63,53,-98,131,-98"},"\u047e":{"d":"1243,-1620r-135,225r-44,0r-28,-100r-211,0r-72,100r-43,0r-32,-100r-212,0r-68,100r-44,0r-45,-225r934,0xm612,-1107v-164,-15,-204,103,-246,235v-49,153,-100,396,-112,573v-4,60,2,98,50,102v76,-9,92,-72,109,-161r46,-233r232,0r-46,233v-11,58,-13,99,-7,124v11,45,76,49,102,13v71,-97,92,-290,123,-434v29,-132,51,-234,41,-357v-7,-82,-67,-105,-158,-95r44,-219v265,-23,377,136,360,400v-18,273,-86,604,-196,786v-58,96,-136,156,-277,156v-102,0,-161,-45,-184,-126v-54,81,-115,126,-234,126v-208,0,-258,-171,-237,-393v35,-370,110,-784,389,-912v67,-31,154,-47,244,-37"},"\u0480":{"d":"366,-579v-36,226,38,376,263,376v85,0,148,-16,214,-34r-127,638r-244,0r78,-384v-328,-10,-494,-214,-455,-563v41,-367,198,-650,517,-750v161,-51,399,-29,545,18r-47,227v-121,-47,-323,-88,-454,-21v-171,87,-255,274,-290,493"},"\u0461":{"d":"720,-281v94,-218,174,-463,199,-735r207,0v-37,406,-168,717,-318,1016r-264,0r-16,-445r-188,445r-250,0r44,-1016r212,0r-42,723r212,-487r-3,-236r207,0r0,735"},"\u0465":{"d":"750,23v-256,0,-374,-187,-327,-453r-123,0r-86,430r-215,0r202,-1016r216,0r-80,402r122,0v73,-276,259,-467,617,-415v38,6,72,13,100,22r-36,184v-76,-28,-187,-55,-277,-20v-93,37,-155,119,-178,229r363,0r-37,183r-366,0v-4,25,-8,60,-8,91v1,118,51,176,171,176v69,0,138,-13,207,-39r-38,195v-70,17,-138,31,-227,31"},"\u0467":{"d":"997,0r-225,0r-66,-374r-62,0r-75,374r-203,0r77,-374r-64,0r-211,374r-236,0r605,-1016r260,0xm478,-556r205,0r-51,-258"},"\u0469":{"d":"1050,0r-186,0r-28,-436r-31,0r-83,436r-167,0r87,-436r-30,0r-192,436r-187,0r201,-436r-164,0r-87,436r-191,0r202,-1016r192,0r-82,408r210,0r192,-408r253,0xm686,-608r140,0r-20,-248"},"\u046b":{"d":"185,-1006r2,-10r957,0r0,11r-332,450r197,555r-241,0r-112,-395r-78,395r-217,0r80,-395r-267,395r-254,0r416,-557xm552,-515r6,0r232,-328r-345,0"},"\u046d":{"d":"511,-1006r2,-10r695,0r0,11r-238,432r86,573r-186,0r-39,-407r-76,407r-189,0r82,-407r-192,407r-197,0r228,-436r-202,0r-87,436r-191,0r202,-1016r192,0r-82,408r238,0xm744,-503r6,0r181,-340r-236,0"},"\u046f":{"d":"230,375v-159,-2,-274,-68,-274,-229v0,-329,421,-257,672,-348v65,-23,118,-91,80,-168v-81,-99,-320,-60,-497,-68r36,-174v212,-9,517,48,517,-152v0,-94,-113,-92,-221,-92v-117,0,-231,16,-330,41r0,-191v90,-14,187,-26,285,-31r-164,-205r204,0r98,129v76,-71,145,-172,301,-143v16,3,30,7,43,10r-25,126v-103,-28,-144,51,-200,94v143,26,263,75,263,231v0,142,-108,230,-238,263v111,19,199,75,199,196v0,348,-400,327,-697,394v-42,10,-81,24,-81,67v0,55,63,57,135,57v162,0,348,-30,491,7r0,205v-178,-41,-392,-16,-597,-19"},"\u0471":{"d":"352,14v-238,-17,-369,-189,-317,-448r117,-582r210,0r-116,582v-16,74,-16,173,26,216v25,26,64,44,117,50r250,-1245r209,0r-250,1245v207,-50,254,-235,296,-468v18,-102,32,-229,44,-380r215,0v-40,509,-98,979,-592,1030r-76,383r-209,0"},"\u0477":{"d":"436,-1413r262,262r-244,0r-348,-262r330,0xm916,-1413r262,262r-244,0r-348,-262r330,0xm1159,-803v-84,-20,-114,36,-145,90r-410,713r-280,0r-201,-1016r262,0r96,576r25,186r90,-178r195,-371v68,-151,178,-261,413,-223"},"\u0479":{"d":"251,23v-253,0,-233,-301,-186,-530v42,-205,85,-401,225,-496v36,-25,81,-35,132,-35v253,0,234,302,187,531v-43,206,-82,400,-223,495v-37,24,-82,35,-135,35xm358,-248v39,-118,62,-275,88,-406v14,-67,24,-129,2,-179v-16,-36,-72,-29,-94,1v-76,109,-94,318,-125,470v-14,67,-21,130,0,180v15,35,70,29,93,1v13,-16,25,-37,36,-67xm382,218v50,2,106,16,146,-4v81,-43,108,-150,147,-243r51,-987r184,0r-44,424r-38,275r195,-699r184,0r-337,974v-51,142,-91,258,-164,354v-65,85,-181,117,-324,95r0,-189"},"\u047b":{"d":"490,-1014v32,-71,158,-131,253,-71v26,17,47,38,62,64v165,42,270,161,266,368v-7,334,-166,556,-422,648v-32,86,-170,144,-265,81v-27,-18,-48,-41,-61,-69v-166,-41,-270,-161,-268,-369v3,-254,105,-439,251,-557v54,-43,115,-75,184,-95xm378,-222v55,-54,187,-52,235,7v126,-72,202,-227,202,-414v0,-72,-19,-125,-58,-158v-66,63,-195,52,-245,-12v-125,73,-201,224,-201,412v0,77,22,132,67,165"},"\u047d":{"d":"313,-197v77,0,95,-74,114,-162r216,0v-12,61,-26,170,48,162v82,-9,97,-109,121,-189v11,-37,18,-78,27,-121v12,-59,20,-109,22,-168v4,-98,-56,-128,-155,-120r44,-221v236,-2,350,91,350,320v0,146,-35,277,-70,394v-35,119,-92,218,-184,276v-44,28,-97,42,-159,42v-105,-1,-168,-43,-195,-126v-54,81,-115,123,-234,126v-250,7,-250,-290,-209,-514v56,-305,169,-527,533,-518r-44,221v-192,-15,-214,127,-249,288v-15,70,-29,142,-29,214v0,51,8,96,53,96xm381,-1358v34,-173,120,-283,321,-280v165,2,233,103,384,125v35,5,74,10,120,10r-32,144v-161,1,-265,-43,-366,-97v-35,-19,-69,-35,-118,-35v-87,0,-119,46,-137,133r-172,0xm746,-1401v68,0,118,43,115,114v-6,149,-122,202,-278,208r15,-73v50,0,88,-14,93,-50v-10,-47,-79,-41,-76,-101v3,-63,53,-98,131,-98"},"\u047f":{"d":"1149,-1318r-135,225r-44,0r-28,-100r-211,0r-72,100r-43,0r-32,-100r-212,0r-68,100r-44,0r-45,-225r934,0xm720,-281v94,-218,174,-463,199,-735r207,0v-37,406,-168,717,-318,1016r-264,0r-16,-445r-188,445r-250,0r44,-1016r212,0r-42,723r212,-487r-3,-236r207,0r0,735"},"\u0481":{"d":"390,-486v-35,180,47,291,226,291v64,0,120,-8,174,-19r-123,615r-244,0r79,-386v-242,-17,-383,-138,-383,-388v0,-337,172,-547,439,-633v146,-47,368,-25,493,17r-45,229v-96,-48,-262,-88,-384,-42v-131,50,-203,165,-232,316"}}});
